-1.974762976169586182e-01 4.234299808740615845e-02 -3.761098533868789673e-02 9.872830659151077271e-02 -2.891896665096282959e-01 9.584863670170307159e-03 -1.263776514679193497e-02 9.944104589521884918e-03 1.141146384179592133e-02 -3.012917935848236084e-01
-2.372143268585205078e-01 -1.012408453971147537e-02 3.026629984378814697e-02 -3.993886336684226990e-02 -3.358961343765258789e-01 -3.473550975322723389e-01 -4.603238105773925781e-01 -1.175484992563724518e-02 -2.188132256269454956e-01 4.184577614068984985e-02
-9.402413666248321533e-02 1.398483850061893463e-02 -2.781229913234710693e-01 -2.401181608438491821e-01 -2.380393594503402710e-01 -2.553658559918403625e-02 1.500713452696800232e-02 -3.517142236232757568e-01 -2.853078022599220276e-02 -2.720835059881210327e-02
-1.974953711032867432e-01 -3.031458854675292969e-01 -3.462969660758972168e-01 -4.924525972455739975e-03 -2.056312561035156250e-01 -2.057489939033985138e-03 -3.026221692562103271e-01 -2.173567563295364380e-01 1.319267135113477707e-02 1.724041625857353210e-02
9.166631847620010376e-02 -3.803453743457794189e-01 -2.614500932395458221e-02 -9.634890407323837280e-02 -4.061748683452606201e-01 -1.082329377532005310e-01 -2.534309625625610352e-01 -1.052218582481145859e-02 1.221271790564060211e-02 -2.012548446655273438e-01
1.496711522340774536e-01 7.067283242940902710e-02 -3.774244487285614014e-01 -4.638125896453857422e-01 -1.498392131179571152e-02 -3.890535533428192139e-01 -1.776586174964904785e-01 -3.931380808353424072e-01 -2.171903699636459351e-01 -1.213215664029121399e-01
-2.094063460826873779e-01 -6.475120782852172852e-02 -2.664350867271423340e-01 -3.945060968399047852e-01 -1.223983615636825562e-01 -2.196218222379684448e-01 1.785690523684024811e-02 -3.599969744682312012e-01 -1.174182221293449402e-01 -3.126190304756164551e-01
-1.358182877302169800e-01 -1.043113693594932556e-02 -3.486672341823577881e-01 -3.073678612709045410e-01 3.705223649740219116e-02 -1.091239694505929947e-02 4.795730486512184143e-02 -3.060503304004669189e-01 1.695150136947631836e-02 -3.300661221146583557e-02
-1.433725059032440186e-01 -3.289211690425872803e-01 -8.433292619884014130e-03 -1.690432727336883545e-01 5.441346019506454468e-02 1.478139590471982956e-02 -3.838891088962554932e-01 3.021101653575897217e-02 -3.636588752269744873e-01 1.390290912240743637e-02
4.381824284791946411e-02 -4.940739870071411133e-01 -1.417599916458129883e-01 -3.064970076084136963e-01 -2.502595782279968262e-01 -2.517362236976623535e-01 2.765553444623947144e-02 -4.743136931210756302e-03 -7.629589736461639404e-02 -8.832839131355285645e-02
-2.570627629756927490e-01 5.988672841340303421e-03 -2.428762167692184448e-01 9.895747154951095581e-02 7.764834165573120117e-02 -1.611573845148086548e-01 -4.007336199283599854e-01 3.896890580654144287e-02 -3.086818754673004150e-01 4.507934499997645617e-04
-4.109320938587188721e-01 -1.467341631650924683e-01 -1.039514020085334778e-01 8.850862830877304077e-02 -3.684096038341522217e-01 1.290076673030853271e-01 -4.314632117748260498e-01 -2.231733202934265137e-01 -1.759689301252365112e-01 9.162420779466629028e-02
1.559720933437347412e-01 -1.135703362524509430e-02 -3.368972614407539368e-02 -1.005378365516662598e-01 -3.054292500019073486e-01 -1.323968172073364258e-01 8.348123729228973389e-02 -2.291534096002578735e-02 -2.537513971328735352e-01 4.681757465004920959e-02
-4.805351197719573975e-01 5.469499528408050537e-02 -2.924761474132537842e-01 5.616211518645286560e-02 -2.696820795536041260e-01 -3.014262020587921143e-01 -4.731306731700897217e-01 9.443017095327377319e-02 -1.736842393875122070e-01 -1.087082922458648682e-01
-3.619763553142547607e-01 5.182848125696182251e-02 1.043394021689891815e-02 -3.956782445311546326e-02 2.954639866948127747e-02 -2.310552299022674561e-01 -4.005826115608215332e-01 -1.593731343746185303e-01 -1.143831685185432434e-01 -3.834468126296997070e-02
7.349319756031036377e-02 -2.971202135086059570e-01 -1.173594072461128235e-01 -3.217464983463287354e-01 -1.511712074279785156e-01 -4.335618317127227783e-01 -3.237783014774322510e-01 -3.751903772354125977e-03 -4.118511080741882324e-02 -2.452161535620689392e-02
-1.231190264225006104e-01 -2.920910120010375977e-01 -4.302491843700408936e-01 -2.972104251384735107e-01 -8.613980561494827271e-02 5.227218568325042725e-02 2.151894569396972656e-02 -9.369494020938873291e-02 4.622914269566535950e-02 -2.092695385217666626e-01
-1.399921718984842300e-02 -1.355202589184045792e-02 2.070791274309158325e-02 -1.457400023937225342e-01 -2.541209757328033447e-01 -7.070013787597417831e-03 -6.196727231144905090e-02 5.811544880270957947e-02 3.451520949602127075e-02 -1.295592486858367920e-01
1.148004755377769470e-01 1.717823557555675507e-02 -3.552143648266792297e-02 -9.552953392267227173e-02 -3.417150080204010010e-01 -2.784205377101898193e-01 -4.599112868309020996e-01 -1.205290853977203369e-01 -5.127215757966041565e-02 -7.552721351385116577e-02
2.640109509229660034e-02 -2.282277345657348633e-01 5.152866244316101074e-02 -2.252760529518127441e-01 -5.214971303939819336e-01 -7.736966013908386230e-02 -1.839965134859085083e-01 -1.217224597930908203e-01 -5.596191808581352234e-02 -1.398645937442779541e-01
1.542149856686592102e-02 -2.646832726895809174e-02 -2.512335181236267090e-01 -2.513050287961959839e-02 -2.290651649236679077e-01 1.617437344975769520e-03 6.598438322544097900e-02 -5.638699606060981750e-02 2.537913620471954346e-02 -2.985462844371795654e-01
-6.746312975883483887e-02 -4.141112565994262695e-01 3.563313186168670654e-02 -1.247014030814170837e-01 -6.961258500814437866e-02 -1.672291457653045654e-01 -1.036402061581611633e-01 -2.441868782043457031e-01 -6.500797718763351440e-02 -8.762021549046039581e-03
-3.745571942999958992e-03 3.408927097916603088e-02 2.920285053551197052e-02 3.561959788203239441e-02 -4.972749352455139160e-01 -2.207511514425277710e-01 -2.461676001548767090e-01 -6.639237981289625168e-03 -4.609765484929084778e-02 -9.981492906808853149e-02
-2.649235129356384277e-01 6.757573038339614868e-02 4.934869240969419479e-03 3.723806142807006836e-02 -3.409104049205780029e-01 1.135758403688669205e-02 -1.705148518085479736e-01 -1.529961526393890381e-01 -1.582060307264328003e-01 -2.171051949262619019e-01
-9.676151722669601440e-02 -4.499787092208862305e-01 8.480498567223548889e-03 -1.522170156240463257e-01 -9.417999535799026489e-02 -2.089443244040012360e-02 -3.232097327709197998e-01 -1.487866491079330444e-01 -2.949303947389125824e-02 3.492969647049903870e-02
4.036899656057357788e-02 -4.903364777565002441e-01 -2.214648723602294922e-01 -4.891428723931312561e-02 -2.062729150056838989e-01 4.421228915452957153e-02 2.512203902006149292e-02 6.829126179218292236e-02 -2.000890821218490601e-01 -2.901554405689239502e-01
7.986970990896224976e-02 5.929589737206697464e-03 -1.620194017887115479e-01 -1.338030491024255753e-02 -1.748440712690353394e-01 -2.202787846326828003e-01 1.823595911264419556e-02 -1.344954520463943481e-01 -2.808763980865478516e-01 -4.370546340942382812e-02
-2.426588535308837891e-01 -4.013629630208015442e-02 -3.817442953586578369e-01 1.260134279727935791e-01 -2.320701815187931061e-02 5.949790030717849731e-02 -2.484445422887802124e-01 -2.220958322286605835e-01 9.602648788131773472e-04 1.991336606442928314e-02
-1.500276178121566772e-01 -9.960489720106124878e-02 -1.968715786933898926e-01 -2.478525787591934204e-01 -1.845566183328628540e-01 -1.704967319965362549e-01 2.154402062296867371e-02 -3.149726390838623047e-01 5.183821171522140503e-02 6.220465525984764099e-02
-1.002263873815536499e-01 -1.982486993074417114e-01 -3.101387023925781250e-01 8.343703299760818481e-02 5.558791011571884155e-02 -1.505140364170074463e-01 -3.388433754444122314e-01 -2.882012128829956055e-01 1.970416903495788574e-01 -5.726356804370880127e-02
-4.411860555410385132e-02 -1.313742995262145996e-01 -1.817159913480281830e-02 -1.308026760816574097e-01 -2.738805711269378662e-01 7.414206862449645996e-02 -1.839516870677471161e-02 -6.439200136810541153e-03 -8.516140282154083252e-02 -2.250022888183593750e-01
-1.247547715902328491e-01 -3.193486928939819336e-01 -2.662151455879211426e-01 7.013912498950958252e-02 -4.228271171450614929e-02 8.029903471469879150e-02 -3.096233904361724854e-01 -1.516169402748346329e-02 9.421048685908317566e-03 2.055408433079719543e-02
6.849666242487728596e-04 -6.101375818252563477e-02 -4.071885347366333008e-02 -2.659798562526702881e-01 -9.199508279561996460e-02 -1.841117292642593384e-01 -6.573054939508438110e-02 6.064775399863719940e-03 -3.769237995147705078e-01 -1.064138412475585938e-01
-1.655040532350540161e-01 -1.660153418779373169e-01 3.943358734250068665e-02 -6.247917562723159790e-02 -2.408299893140792847e-01 4.195915907621383667e-02 -8.514900505542755127e-02 -1.320710480213165283e-01 3.637667372822761536e-02 3.454878181219100952e-02
-2.190346270799636841e-02 -2.191680520772933960e-01 -3.219432532787322998e-01 -2.498854547739028931e-01 -2.776237390935420990e-02 -4.694149363785982132e-03 -2.895362488925457001e-02 3.152519464492797852e-02 2.554980479180812836e-02 1.676680147647857666e-02
1.307637058198451996e-02 -4.177094101905822754e-01 -1.763669252395629883e-01 -3.013632632791996002e-02 -4.074062407016754150e-01 3.793124109506607056e-02 -1.400943696498870850e-01 -6.168009713292121887e-02 -3.771201893687248230e-02 -6.597124040126800537e-02
-1.144847199320793152e-01 -1.579621247947216034e-02 -7.983895484358072281e-04 -1.233039572834968567e-01 -4.385585486888885498e-01 -3.102466464042663574e-01 -1.369186043739318848e-01 -1.817567050457000732e-01 2.790490351617336273e-02 -3.004662096500396729e-01
-7.006322741508483887e-01 -1.754435151815414429e-02 6.506068166345357895e-03 -3.736080527305603027e-01 1.195326745510101318e-01 -3.816706836223602295e-01 -2.780778110027313232e-01 -1.488205492496490479e-01 -8.355492353439331055e-02 1.857719011604785919e-02
-1.942157298326492310e-01 -3.509364128112792969e-01 1.373915523290634155e-01 -1.016400475054979324e-02 -2.505374848842620850e-01 -5.975745990872383118e-02 -1.363609135150909424e-01 2.255700901150703430e-02 -2.648280858993530273e-01 6.747464649379253387e-03
-9.590873867273330688e-02 -1.730815023183822632e-01 5.729945003986358643e-02 6.674216687679290771e-02 -3.350711464881896973e-01 8.708728104829788208e-02 -1.193388998508453369e-01 -2.389376908540725708e-01 -3.739296924322843552e-03 2.520122006535530090e-02
-2.757938504219055176e-01 -3.749701082706451416e-01 -1.006244197487831116e-01 -9.224719554185867310e-02 -2.227115184068679810e-01 -1.589002087712287903e-02 2.822106145322322845e-02 -3.974937796592712402e-01 -3.785894438624382019e-02 -1.995007842779159546e-01
-2.893474102020263672e-01 -1.682763993740081787e-01 4.876072052866220474e-03 -2.084699422121047974e-01 -9.508829563856124878e-02 -1.996089071035385132e-01 -3.340446054935455322e-01 5.966219678521156311e-02 -1.356566101312637329e-01 -7.905457913875579834e-02
9.819560497999191284e-02 -1.953123658895492554e-01 -1.744378060102462769e-01 -2.571038007736206055e-01 -1.910199075937271118e-01 -9.204176813364028931e-02 8.601742796599864960e-03 -3.608908057212829590e-01 -8.572786301374435425e-02 -1.270367354154586792e-01
-9.404101967811584473e-02 8.796854317188262939e-02 2.413905784487724304e-02 1.653966493904590607e-02 -1.749249547719955444e-01 -1.630833446979522705e-01 -5.018317326903343201e-02 -4.027325659990310669e-03 -8.654062636196613312e-03 -3.361518383026123047e-01
4.029799997806549072e-02 -6.619578599929809570e-02 -3.049284592270851135e-02 -4.781862720847129822e-02 7.093109656125307083e-03 -1.939136832952499390e-01 -2.900009416043758392e-02 5.607568845152854919e-02 -3.080469965934753418e-01 -2.467762529850006104e-01
2.790834940969944000e-02 8.680728822946548462e-02 -1.303331702947616577e-01 -2.710151076316833496e-01 -1.283666193485260010e-01 4.955172166228294373e-02 -1.635359525680541992e-01 -1.782790273427963257e-01 -5.345707759261131287e-02 2.450964786112308502e-02
5.885395035147666931e-02 -1.195882167667150497e-02 5.549152195453643799e-02 -1.523903310298919678e-01 -3.863475620746612549e-01 -2.683991193771362305e-01 -8.592382073402404785e-02 -7.904997467994689941e-02 -7.724425196647644043e-02 -2.839970588684082031e-01
-1.145241409540176392e-01 -2.379579842090606689e-01 -9.263952076435089111e-02 -2.127663791179656982e-01 -4.007973670959472656e-01 6.195779889822006226e-02 3.827187791466712952e-02 -1.561740785837173462e-01 -8.691956847906112671e-02 -1.634649932384490967e-01
-3.238287866115570068e-01 4.845689237117767334e-02 1.724247075617313385e-02 -6.422077864408493042e-02 2.162413299083709717e-02 -1.968921124935150146e-01 -3.068725466728210449e-01 1.041198801249265671e-02 1.717232540249824524e-02 3.472613915801048279e-02
4.466143995523452759e-02 -1.057827249169349670e-01 -1.640042811632156372e-01 -2.947499752044677734e-01 2.827229537069797516e-02 -2.475527077913284302e-01 -2.622967362403869629e-01 -2.089317589998245239e-01 2.248463034629821777e-02 -5.094933137297630310e-02
-1.552372574806213379e-01 -3.372006118297576904e-01 -7.293925434350967407e-02 -2.565990760922431946e-02 -2.604450285434722900e-01 9.188020974397659302e-02 -2.113932818174362183e-01 -3.476287424564361572e-02 -2.053578011691570282e-02 -3.233002498745918274e-02
-3.729194104671478271e-01 4.010881111025810242e-02 -1.598839461803436279e-02 -2.884469032287597656e-01 -5.916598066687583923e-02 -4.699950516223907471e-01 -3.664743006229400635e-01 -8.561643771827220917e-03 -2.647691965103149414e-01 -9.347583353519439697e-02
5.809939280152320862e-02 -2.908312678337097168e-01 -5.727748945355415344e-02 1.227071955800056458e-01 -6.016638875007629395e-02 -1.933996528387069702e-01 2.923894301056861877e-02 -3.207981819286942482e-03 -2.738907039165496826e-01 -2.176063060760498047e-01
-2.975820004940032959e-01 1.302662026137113571e-02 -1.472582854330539703e-02 -4.574422538280487061e-02 -7.961707562208175659e-02 1.085543408989906311e-01 -8.184300363063812256e-02 -2.386381179094314575e-01 4.776458721607923508e-03 -9.943409264087677002e-02
-2.340470552444458008e-01 -2.296642363071441650e-01 4.759297892451286316e-02 -1.857591122388839722e-01 -9.928591549396514893e-03 -4.940156824886798859e-03 -5.915951449424028397e-03 -2.589791715145111084e-01 -2.196655608713626862e-02 -2.899700403213500977e-01
-5.707991495728492737e-02 -3.816011846065521240e-01 -2.144779115915298462e-01 -1.241922378540039062e-01 1.566769182682037354e-02 1.397220939397811890e-01 -3.101641125977039337e-02 -2.216415666043758392e-02 -7.152500748634338379e-02 -3.139185905456542969e-01
-3.460275009274482727e-02 -8.825212717056274414e-02 -1.217367202043533325e-01 -2.654510922729969025e-02 -1.368753705173730850e-02 7.110983133316040039e-02 -6.952014565467834473e-02 4.006758332252502441e-02 -2.508569359779357910e-01 -1.964440047740936279e-01
-1.553020346909761429e-02 -3.236916661262512207e-01 -1.092224940657615662e-02 2.961729653179645538e-02 -3.030690252780914307e-01 -1.778992414474487305e-01 -5.646157637238502502e-02 -2.315184324979782104e-01 -1.233458239585161209e-02 -3.664135038852691650e-01
-6.872183177620172501e-03 -2.034194171428680420e-01 -9.883710741996765137e-02 6.288335472345352173e-02 -8.147433400154113770e-02 -3.778967559337615967e-01 -5.859569907188415527e-01 -2.657008767127990723e-01 -1.884856633841991425e-02 -3.208925575017929077e-02
3.099087439477443695e-02 8.165260776877403259e-03 -9.416680037975311279e-02 -3.948726952075958252e-01 1.654767780564725399e-03 -8.790573477745056152e-02 3.116333670914173126e-02 -4.250700473785400391e-01 -7.840693742036819458e-02 -2.355804145336151123e-01
2.677758596837520599e-02 -3.186754584312438965e-01 -1.025349199771881104e-01 5.492585897445678711e-02 -2.637722194194793701e-01 7.734119892120361328e-02 -3.515643179416656494e-01 -1.568222641944885254e-01 -1.860372722148895264e-01 6.455123424530029297e-02
-1.159980222582817078e-01 -1.076960191130638123e-01 5.946541205048561096e-02 -2.221679687500000000e-01 -3.202287852764129639e-02 -1.162436604499816895e-01 -3.326416611671447754e-01 -1.914428770542144775e-01 -2.940317988395690918e-01 -2.453870028257369995e-01
-1.979144364595413208e-01 2.396464347839355469e-03 -2.713625133037567139e-01 7.366913557052612305e-02 -2.281718999147415161e-01 -1.661850214004516602e-01 -8.145872950553894043e-01 -6.152160838246345520e-02 -3.984371200203895569e-02 -5.647614132612943649e-03
-6.234429404139518738e-02 -5.375843122601509094e-02 2.351449616253376007e-02 6.369014084339141846e-02 -2.762763202190399170e-02 5.690188705921173096e-02 -9.135343134403228760e-02 -3.418068587779998779e-01 -5.863676313310861588e-03 -1.363621205091476440e-01
6.580380140803754330e-04 -9.020060300827026367e-02 -1.190725248306989670e-02 -2.795071713626384735e-02 -3.383022733032703400e-03 -2.417012155055999756e-01 3.585704788565635681e-02 -3.661831617355346680e-01 -3.710517659783363342e-02 -8.614648133516311646e-02
2.682529762387275696e-02 -4.245427548885345459e-01 4.502671957015991211e-02 -1.866757422685623169e-01 -3.850151300430297852e-01 -2.580327354371547699e-02 -6.337983161211013794e-02 -2.091079503297805786e-01 -8.460879325866699219e-02 3.021357208490371704e-02
-1.978521645069122314e-01 -1.689523160457611084e-01 -5.990088451653718948e-03 -3.067193031311035156e-01 2.075217105448246002e-02 -3.701044321060180664e-01 -3.141347318887710571e-02 -2.535459995269775391e-01 -2.253996878862380981e-01 -2.780283391475677490e-01
-2.390682697296142578e-01 5.551291257143020630e-02 2.357671596109867096e-02 -2.342174062505364418e-03 -1.634037494659423828e-01 -9.193033725023269653e-02 -5.878925696015357971e-02 -3.330957293510437012e-01 -2.327035814523696899e-01 -3.037193715572357178e-01
-1.786327775334939361e-04 3.552600368857383728e-02 6.110106781125068665e-02 -2.183182835578918457e-01 -1.861861944198608398e-01 -1.619703769683837891e-01 5.396920721977949142e-03 -3.424490392208099365e-01 -9.256538003683090210e-02 -4.270128905773162842e-01
3.260824829339981079e-02 -2.077764272689819336e-01 -8.690855652093887329e-02 -3.294559717178344727e-01 4.012037813663482666e-02 -1.791469156742095947e-01 1.073331609368324280e-01 7.369494438171386719e-02 -1.137615591287612915e-01 -2.257129251956939697e-01
-2.418076246976852417e-02 -5.114807486534118652e-01 2.131635509431362152e-02 -1.285618841648101807e-01 -2.568744421005249023e-01 -2.553885579109191895e-01 -8.457463979721069336e-02 -2.853354215621948242e-01 -2.311235293745994568e-02 4.419721662998199463e-03
7.297301292419433594e-02 -2.536471374332904816e-02 -1.832612901926040649e-01 1.050382405519485474e-01 -3.704372048377990723e-01 8.727636188268661499e-02 -1.773193478584289551e-01 -2.470140010118484497e-01 -1.961302012205123901e-02 -2.732018530368804932e-01
3.817128948867321014e-03 6.437321659177541733e-03 -5.261756107211112976e-02 -1.698586903512477875e-02 -2.950597181916236877e-02 -1.110928803682327271e-01 -6.353829801082611084e-02 -3.302286863327026367e-01 -3.344001770019531250e-01 -2.114344015717506409e-02
-2.720645070075988770e-01 -1.675416678190231323e-01 -3.207724690437316895e-01 9.221579134464263916e-02 -1.003587990999221802e-01 1.224982514977455139e-01 7.807691395282745361e-02 -4.852689206600189209e-01 5.336426664143800735e-03 -2.062363177537918091e-02
-2.669041752815246582e-01 -2.763134837150573730e-01 -9.120499342679977417e-02 2.284618839621543884e-02 -3.856320679187774658e-01 3.230435028672218323e-02 -2.516059949994087219e-02 -3.359056413173675537e-01 2.147148735821247101e-02 -1.594313532114028931e-01
-3.407002389430999756e-01 1.099950596690177917e-01 -6.988830119371414185e-02 -3.322634696960449219e-01 5.477100610733032227e-02 -1.075347326695919037e-02 -2.000143975019454956e-01 -1.328026056289672852e-01 -2.806157767772674561e-01 -2.857770957052707672e-02
-8.551141619682312012e-02 1.255074795335531235e-02 -5.279461666941642761e-02 3.197053819894790649e-02 -2.248146235942840576e-01 -1.817245967686176300e-02 -7.928031682968139648e-02 -3.013797104358673096e-01 -2.645352482795715332e-01 -2.322019040584564209e-01
-7.743487600237131119e-03 -3.260051906108856201e-01 -3.446876108646392822e-01 2.664216980338096619e-02 7.129304856061935425e-02 -5.913745239377021790e-02 9.120076894760131836e-03 -5.746608600020408630e-02 -3.436241149902343750e-01 -6.120712962001562119e-03
8.202108740806579590e-02 9.495585411787033081e-02 -1.736504137516021729e-01 1.897896081209182739e-02 -3.462142124772071838e-02 6.544962525367736816e-02 -1.861893981695175171e-01 -2.584589421749114990e-01 -2.493025809526443481e-01 4.513573274016380310e-02
-4.324656128883361816e-01 1.116474270820617676e-01 -2.063008397817611694e-01 -2.835372276604175568e-02 -7.205959409475326538e-02 -1.954828053712844849e-01 -3.133242428302764893e-01 1.238294392824172974e-01 1.195686962455511093e-02 -1.576537340879440308e-01
-9.260114282369613647e-02 -2.891054153442382812e-01 -4.321944415569305420e-01 -2.804768681526184082e-01 -1.421931684017181396e-01 3.200431168079376221e-02 4.126237705349922180e-02 2.017430262640118599e-03 -4.683375358581542969e-02 -1.317060142755508423e-01
-4.957295954227447510e-01 -1.658121496438980103e-01 -2.439608424901962280e-01 -1.356960535049438477e-01 4.868024587631225586e-02 6.297973543405532837e-02 -2.281465679407119751e-01 -1.732885688543319702e-01 7.540713995695114136e-02 2.959459275007247925e-02
1.139860600233078003e-02 -2.442084252834320068e-01 4.967438802123069763e-02 2.708057686686515808e-02 -2.901569604873657227e-01 4.528356343507766724e-02 -2.941836975514888763e-02 -2.700506448745727539e-01 -5.401592701673507690e-02 -2.704987861216068268e-02
-1.890622526407241821e-01 8.641689270734786987e-02 -1.765431314706802368e-01 -3.117718696594238281e-01 -2.062681019306182861e-01 -6.541787832975387573e-02 -2.983821034431457520e-01 2.893489599227905273e-02 -2.813111245632171631e-01 -5.576652660965919495e-02
-2.382378131151199341e-01 -2.669769152998924255e-02 6.943538039922714233e-02 6.039036437869071960e-02 2.922290191054344177e-02 -1.978131830692291260e-01 -1.681931912899017334e-01 -2.639609575271606445e-01 5.953909829258918762e-02 -2.118594348430633545e-01
-2.695592343807220459e-01 -4.646820425987243652e-01 -3.110683262348175049e-01 -2.001097500324249268e-01 -8.605590462684631348e-02 -7.421636581420898438e-02 -2.100065946578979492e-01 -2.415091991424560547e-01 -9.764633141458034515e-03 -1.040103062987327576e-01
-6.604606658220291138e-02 -1.690554469823837280e-01 -4.567204043269157410e-02 -3.217411339282989502e-01 -5.058023333549499512e-01 -2.777571082115173340e-01 -2.213051617145538330e-01 -2.445341944694519043e-01 -5.189354345202445984e-02 -2.737572789192199707e-01
-2.597712874412536621e-01 4.062515869736671448e-02 -4.094570875167846680e-03 -1.894708424806594849e-01 -5.274005234241485596e-03 -4.353925958275794983e-02 -5.013230070471763611e-02 -4.430828616023063660e-03 -1.897673010826110840e-01 -3.787151873111724854e-01
1.301885396242141724e-02 -1.034783315844833851e-03 -9.717289358377456665e-02 -3.061961531639099121e-01 -1.772897839546203613e-01 -1.061320826411247253e-01 -7.153376936912536621e-02 -1.183187812566757202e-01 -5.054422467947006226e-02 -3.863027393817901611e-01
-8.229684829711914062e-02 -1.326304823160171509e-01 6.306556612253189087e-02 -1.524824798107147217e-01 -4.056030809879302979e-01 -2.255162745714187622e-01 -2.929640710353851318e-01 4.500119760632514954e-02 -2.894872985780239105e-02 -1.975101791322231293e-02
-3.486060202121734619e-01 -3.011487424373626709e-01 -3.408712521195411682e-02 3.409114107489585876e-02 -3.195379972457885742e-01 -2.913976311683654785e-01 -6.630561351776123047e-01 -1.208359282463788986e-02 4.925787448883056641e-02 -5.696229171007871628e-03
-3.864270448684692383e-02 -4.574099481105804443e-01 -1.115307956933975220e-01 -1.153991892933845520e-01 -1.630833745002746582e-01 2.229751832783222198e-02 -1.136719062924385071e-01 7.850257307291030884e-02 -2.790090739727020264e-01 -6.055533140897750854e-02
-5.551670789718627930e-01 -1.589889526367187500e-01 -5.516442656517028809e-01 2.920899353921413422e-02 -6.272840499877929688e-02 9.792314469814300537e-02 -3.534331321716308594e-01 -1.703911572694778442e-01 -1.180924773216247559e-01 -3.539491817355155945e-02
-2.937195599079132080e-01 -3.603372350335121155e-02 -1.865101754665374756e-01 -3.848911225795745850e-01 1.099918335676193237e-01 -2.158244401216506958e-01 -2.894013524055480957e-01 -3.548343479633331299e-01 -9.641665220260620117e-02 -1.132504642009735107e-01
-1.986100152134895325e-02 -1.810043901205062866e-01 3.808239102363586426e-02 1.154929101467132568e-01 -3.031405508518218994e-01 1.202957630157470703e-01 -4.074802994728088379e-01 -7.836749777197837830e-03 -4.068161547183990479e-02 2.845691703259944916e-02
-2.379511594772338867e-01 -5.287523195147514343e-02 2.989356219768524170e-02 -2.630801796913146973e-01 1.221868693828582764e-01 -1.959681063890457153e-01 -1.144412010908126831e-01 -3.005602657794952393e-01 1.230801548808813095e-02 2.891971170902252197e-02
-7.509793341159820557e-02 -3.848445713520050049e-01 -1.575690805912017822e-01 -3.047689795494079590e-01 -9.580630064010620117e-02 -1.961921751499176025e-01 -1.191729307174682617e-01 -4.389681816101074219e-01 -9.912813454866409302e-02 -2.049181163311004639e-01
6.665088236331939697e-03 -2.280210331082344055e-02 3.528430312871932983e-02 -9.665246307849884033e-02 -3.988746926188468933e-02 -1.647781580686569214e-01 -2.966297417879104614e-02 -6.592174619436264038e-02 -1.825193464756011963e-01 -1.858065724372863770e-01
-4.294384717941284180e-01 -7.858537137508392334e-03 -2.723959833383560181e-02 -1.246163770556449890e-01 -9.025094658136367798e-02 -4.326154887676239014e-01 -2.428026683628559113e-02 7.887454330921173096e-02 -1.100149899721145630e-01 -1.611011028289794922e-01
-1.466375142335891724e-01 -4.233638644218444824e-01 6.823717057704925537e-02 -1.239576786756515503e-01 2.275250665843486786e-02 4.262296855449676514e-02 -1.181769222021102905e-01 -2.212354168295860291e-02 -5.747754126787185669e-02 -1.420676708221435547e-01
1.032303497195243835e-01 -3.275719285011291504e-01 -3.990350291132926941e-02 -1.885488182306289673e-01 -3.444376401603221893e-03 -3.485157787799835205e-01 -4.688581451773643494e-03 1.045370474457740784e-02 -1.241076514124870300e-01 3.027770482003688812e-02
1.203255634754896164e-02 8.292448520660400391e-02 -3.514209687709808350e-01 -1.781398355960845947e-01 -8.840459585189819336e-02 1.135481670498847961e-01 -3.640722855925559998e-02 1.741939038038253784e-02 5.498078837990760803e-02 -9.215059876441955566e-02
6.453745067119598389e-02 9.475605934858322144e-02 -3.191181123256683350e-01 -8.294980227947235107e-02 -1.769549995660781860e-01 -2.844375669956207275e-01 1.120578423142433167e-01 1.684649731032550335e-03 -1.735139638185501099e-01 -7.609679549932479858e-02
-3.532540425658226013e-02 -3.099600076675415039e-01 -4.321126639842987061e-02 9.244209527969360352e-02 -2.157083898782730103e-01 1.103620752692222595e-01 7.261926773935556412e-03 -3.560770303010940552e-02 -1.838890612125396729e-01 -7.846593856811523438e-03
-2.605163156986236572e-01 -4.794643223285675049e-01 -2.450595647096633911e-01 -3.448765575885772705e-01 -4.290108755230903625e-02 1.672895848751068115e-01 -1.880237013101577759e-01 5.746281147003173828e-02 -1.593042463064193726e-01 -1.271165609359741211e-01
-6.537616718560457230e-03 -4.261979088187217712e-02 -3.415193408727645874e-02 6.706463545560836792e-02 -2.837160527706146240e-01 -2.282967790961265564e-02 -3.938240557909011841e-02 4.456656053662300110e-02 -2.754249572753906250e-01 -1.705095022916793823e-01
-3.245894312858581543e-01 -3.896127641201019287e-01 -4.178954660892486572e-01 -1.555467098951339722e-01 1.083471700549125671e-01 -1.170122902840375900e-02 -3.368747532367706299e-01 -3.141500353813171387e-01 -2.478296011686325073e-01 6.791314482688903809e-02
-3.749777376651763916e-01 -1.489641070365905762e-01 -3.339150547981262207e-01 -3.730512782931327820e-02 5.795012041926383972e-02 -7.453859597444534302e-02 -4.536381363868713379e-01 -2.166803330183029175e-01 -1.188804302364587784e-02 -1.225296221673488617e-02
-3.383391499519348145e-01 1.980334669351577759e-01 -4.073109924793243408e-01 -1.115211546421051025e-01 -2.484594583511352539e-01 1.049965918064117432e-01 -2.428487315773963928e-02 -4.428745806217193604e-01 -1.309937089681625366e-01 -1.614921540021896362e-01
-2.607861757278442383e-01 7.605569809675216675e-02 -1.013311594724655151e-01 -1.413572281599044800e-01 5.973441898822784424e-02 3.504884243011474609e-02 -3.975475952029228210e-02 -3.202510774135589600e-01 -8.853537589311599731e-02 -2.067227214574813843e-01
7.227116078138351440e-02 -2.686253190040588379e-01 -2.570229768753051758e-01 -3.273831009864807129e-01 -3.364679515361785889e-01 -1.379691660404205322e-01 -2.557826042175292969e-01 -3.395662307739257812e-01 8.101041615009307861e-02 -3.406889736652374268e-01
-6.458311807364225388e-03 -1.971466839313507080e-02 -3.633023472502827644e-03 -1.685871742665767670e-02 -3.574897348880767822e-01 -6.319021433591842651e-02 -7.629886269569396973e-02 -6.755437701940536499e-02 -1.429336518049240112e-01 -5.482745170593261719e-02
-2.516103982925415039e-01 -7.778048515319824219e-02 -3.419513106346130371e-01 -2.459960579872131348e-01 7.000029832124710083e-02 -3.051241934299468994e-01 -3.022369444370269775e-01 -2.770502269268035889e-01 -1.076021604239940643e-02 -1.003024056553840637e-01
4.378768801689147949e-02 -2.735874354839324951e-01 -3.879145905375480652e-02 1.125803589820861816e-01 -3.869248330593109131e-01 -1.578597128391265869e-01 -5.621986389160156250e-01 1.298519037663936615e-02 1.491539180278778076e-02 -3.940385207533836365e-02
-2.002976983785629272e-01 -5.206367745995521545e-02 -5.208190158009529114e-02 5.695349536836147308e-03 -2.576896548271179199e-01 1.210076138377189636e-01 -2.698769560083746910e-03 3.942507877945899963e-02 -1.099844276905059814e-01 -4.487030208110809326e-01
-1.713445633649826050e-01 -2.629691064357757568e-01 -3.208132088184356689e-01 7.084047794342041016e-02 -1.277813464403152466e-01 8.444671332836151123e-02 -4.293889403343200684e-01 -1.442567631602287292e-02 -3.528646826744079590e-01 -1.477058883756399155e-02
-4.089502394199371338e-01 -4.174529016017913818e-01 -1.081195771694183350e-01 -3.581344336271286011e-02 2.488827519118785858e-02 2.151331678032875061e-02 4.589888080954551697e-02 -4.214751124382019043e-01 -2.314431220293045044e-01 -7.784568518400192261e-02
-7.546448707580566406e-02 -2.119861394166946411e-01 -2.816631197929382324e-01 6.850007921457290649e-02 -3.804005384445190430e-01 1.680034585297107697e-02 -4.891355708241462708e-02 -5.501426756381988525e-02 2.672560885548591614e-02 -9.757998585700988770e-02
-2.325953245162963867e-01 -1.980390399694442749e-01 -5.901239067316055298e-02 7.302067428827285767e-02 -3.232132196426391602e-01 -5.598970055580139160e-01 9.575291723012924194e-02 2.754214778542518616e-02 -6.356527656316757202e-02 -3.022791743278503418e-01
-2.746977806091308594e-01 -1.881948262453079224e-01 1.813660375773906708e-02 -1.693856418132781982e-01 6.696156691759824753e-03 -2.472517341375350952e-01 1.793112605810165405e-02 -1.183583587408065796e-02 -1.701726466417312622e-01 -2.342887967824935913e-02
4.640487581491470337e-02 -4.051989018917083740e-01 1.310774218291044235e-02 -1.098681166768074036e-01 -5.080942064523696899e-02 2.464600279927253723e-02 -1.733596324920654297e-01 -1.811171136796474457e-02 -3.224164992570877075e-02 -1.226844033226370811e-03
-2.866165637969970703e-01 4.360086470842361450e-02 -9.057729691267013550e-02 -1.672173887491226196e-01 2.189468778669834137e-02 6.061995029449462891e-02 -4.246426001191139221e-02 2.661323733627796173e-02 1.693811640143394470e-02 -1.139028891921043396e-01
-1.808124780654907227e-01 -4.073485136032104492e-01 1.392213851213455200e-01 -1.810051053762435913e-01 -1.679393351078033447e-01 7.212204486131668091e-02 -3.275413811206817627e-01 5.745301768183708191e-02 -1.136584952473640442e-01 -3.490132465958595276e-02
2.670250274240970612e-02 -3.567548394203186035e-01 5.619242787361145020e-02 -2.881497740745544434e-01 4.388649389147758484e-02 -1.720215082168579102e-01 -1.739952564239501953e-01 -3.165758848190307617e-01 -2.817882038652896881e-02 -2.458876669406890869e-01
7.660742849111557007e-02 3.604228049516677856e-02 -4.994951561093330383e-02 -3.872369527816772461e-01 -1.246831193566322327e-01 -1.853516995906829834e-01 1.609861850738525391e-02 -2.631505951285362244e-02 6.452575791627168655e-03 -2.765044271945953369e-01
-4.004302918910980225e-01 -4.180816113948822021e-01 -3.118860125541687012e-01 9.221158176660537720e-02 -3.517507910728454590e-01 9.820690006017684937e-02 1.293622702360153198e-01 -2.628910541534423828e-01 1.083613000810146332e-02 5.153249949216842651e-02
-1.152950599789619446e-01 1.008248627185821533e-01 9.197654435411095619e-04 -2.832807898521423340e-01 6.776878237724304199e-02 -9.411877393722534180e-02 -1.267403364181518555e-01 5.147467553615570068e-02 -2.954304218292236328e-01 2.128123864531517029e-02
-4.662875235080718994e-01 -3.234178945422172546e-02 -1.861039400100708008e-01 -4.768607765436172485e-02 -1.763821691274642944e-01 -1.398878395557403564e-01 -7.267497181892395020e-01 -2.000674456357955933e-01 -2.582871019840240479e-01 8.134278655052185059e-02
-2.403435856103897095e-02 4.191096127033233643e-02 -1.862304098904132843e-02 2.564224041998386383e-02 -4.377652425318956375e-03 -1.541990488767623901e-01 -9.994344785809516907e-03 -3.286039531230926514e-01 -1.915937662124633789e-01 -2.726271450519561768e-01
-1.939766407012939453e-01 -2.483683526515960693e-01 -1.716912165284156799e-02 -3.603248298168182373e-01 5.123041197657585144e-02 -2.104573100805282593e-01 3.260989859700202942e-02 6.156613677740097046e-02 -3.688237369060516357e-01 -4.952336102724075317e-02
-1.714557409286499023e-01 -4.273619651794433594e-01 1.019289903342723846e-02 1.212630793452262878e-01 -3.083150982856750488e-01 1.125930920243263245e-01 -9.312983602285385132e-02 -1.495521366596221924e-01 7.411096710711717606e-03 1.930397935211658478e-02
1.014656350016593933e-01 -5.489877238869667053e-02 -5.466926842927932739e-03 4.230095446109771729e-02 -2.676868438720703125e-01 -3.264674544334411621e-01 -1.148599572479724884e-02 -5.414447188377380371e-02 -6.222784891724586487e-02 -7.787500321865081787e-02
1.017108857631683350e-01 -3.154978752136230469e-01 -4.860036075115203857e-02 -5.189171060919761658e-03 -1.346179097890853882e-01 -2.041628360748291016e-01 7.157628238201141357e-02 -3.843797445297241211e-01 2.150037512183189392e-02 -2.154010981321334839e-01
-6.362175196409225464e-02 2.155048027634620667e-02 -1.864371299743652344e-01 -3.616853356361389160e-01 -1.063104253262281418e-02 -7.477171719074249268e-02 -3.883842006325721741e-02 -3.037143647670745850e-01 -2.080266177654266357e-02 -5.512520298361778259e-02
-1.490879207849502563e-01 -1.020732745528221130e-01 -1.154401339590549469e-02 -1.662233471870422363e-01 -2.168431878089904785e-01 1.294864993542432785e-02 -7.551253587007522583e-02 -1.827964186668395996e-02 -2.198622934520244598e-02 -2.932194471359252930e-01
-4.098019301891326904e-01 3.360252827405929565e-02 -2.494186460971832275e-01 -1.417451649904251099e-01 -3.756685256958007812e-01 1.155824065208435059e-01 -1.055940017104148865e-01 -3.167353272438049316e-01 4.937098547816276550e-02 -1.854168027639389038e-01
-1.102579534053802490e-01 1.289151515811681747e-02 -3.095342218875885010e-01 4.304023832082748413e-02 6.032217759639024734e-03 7.095110416412353516e-02 -2.095629870891571045e-01 -1.706380099058151245e-01 -3.851030394434928894e-02 -2.031073421239852905e-01
-4.024749994277954102e-01 5.269856005907058716e-02 -3.393847346305847168e-01 -4.246532917022705078e-01 1.107288338243961334e-02 -2.703993320465087891e-01 -2.681707143783569336e-01 4.948624595999717712e-02 -3.225536346435546875e-01 -6.215492635965347290e-02
-2.504415512084960938e-01 -6.633256375789642334e-02 6.140252109616994858e-03 5.910633876919746399e-02 -3.337192237377166748e-01 -3.445133864879608154e-01 -3.395123183727264404e-01 4.269472509622573853e-02 -2.265330851078033447e-01 -2.319200187921524048e-01
6.083359569311141968e-02 -3.565719723701477051e-01 -3.860717713832855225e-01 -2.918402850627899170e-01 5.809603631496429443e-02 -1.368578821420669556e-01 1.168689504265785217e-02 -2.151127457618713379e-01 -1.429888140410184860e-02 -4.979782737791538239e-03
-1.412199717015028000e-02 -3.655348420143127441e-01 -4.817696288228034973e-02 7.988958805799484253e-02 -3.632062375545501709e-01 -1.016564220190048218e-01 -3.092387616634368896e-01 2.007569745182991028e-02 -2.478447854518890381e-01 -8.742694556713104248e-02
-2.867513597011566162e-01 -1.597667299211025238e-02 -1.456406619399785995e-02 -9.142344444990158081e-02 -1.870567500591278076e-01 -3.991591334342956543e-01 -3.906506672501564026e-02 6.217816378921270370e-03 -3.804364427924156189e-02 -7.040312141180038452e-02
2.375642536208033562e-03 -8.842545002698898315e-02 -2.679039724171161652e-02 1.104805245995521545e-01 -7.483823299407958984e-01 7.403726130723953247e-02 -8.903129398822784424e-02 -2.849716842174530029e-01 -3.095732629299163818e-01 -7.193321734666824341e-02
-6.693037599325180054e-02 -2.364605069160461426e-01 -8.909819275140762329e-02 -9.904845058917999268e-02 5.138610675930976868e-02 -1.531034409999847412e-01 1.376831997185945511e-02 -5.292502045631408691e-01 -2.504463195800781250e-01 -1.001195758581161499e-01
-1.528421044349670410e-01 -3.332871794700622559e-01 1.191588863730430603e-02 -3.681179583072662354e-01 9.619002789258956909e-02 -1.679788827896118164e-01 -7.422121614217758179e-02 -8.824707008898258209e-03 -1.818610131740570068e-01 -4.454550147056579590e-02
-4.072572290897369385e-01 6.553157418966293335e-02 -1.565859764814376831e-01 -1.209023501724004745e-02 4.249635711312294006e-02 -1.445620507001876831e-01 -4.110118150711059570e-01 7.087013870477676392e-02 -1.890810281038284302e-01 2.207386679947376251e-02
-1.151610687375068665e-01 -1.445639133453369141e-01 6.037323176860809326e-02 4.525113478302955627e-02 -1.753642410039901733e-01 5.756006017327308655e-02 -4.050444364547729492e-01 2.787909656763076782e-02 7.405393291264772415e-03 2.954828552901744843e-02
1.013913825154304504e-01 -3.332710862159729004e-01 -2.702875733375549316e-01 -3.863533958792686462e-02 -2.788815200328826904e-01 -2.771236002445220947e-01 4.427344724535942078e-02 -2.779780626296997070e-01 -8.278812468051910400e-02 -3.813727572560310364e-02
1.024774834513664246e-02 6.604957580566406250e-02 -9.917021542787551880e-02 -4.839479923248291016e-02 -2.654937803745269775e-01 1.406172942370176315e-02 -2.896175347268581390e-02 -1.035610213875770569e-01 -3.520346283912658691e-01 7.462681084871292114e-02
-2.169683724641799927e-01 9.327223524451255798e-03 -2.883069217205047607e-01 -6.210583448410034180e-02 -1.725146174430847168e-01 3.948152437806129456e-02 6.769835948944091797e-03 -2.117894589900970459e-02 1.434931624680757523e-02 -1.803826242685317993e-01
-3.327978551387786865e-01 -9.042268991470336914e-02 -1.056039938703179359e-03 8.728963881731033325e-02 -8.598434925079345703e-02 7.905638217926025391e-02 -9.394571185111999512e-02 -2.796443700790405273e-01 2.545578405261039734e-02 -2.387087196111679077e-01
-3.871604204177856445e-01 -2.766419351100921631e-01 -1.479018181562423706e-01 1.658645272254943848e-02 -2.429202944040298462e-01 -1.953903734683990479e-01 -6.917001605033874512e-01 3.132560476660728455e-02 5.835144780576229095e-03 -3.267329558730125427e-02
-2.016563266515731812e-01 3.621630743145942688e-02 -2.023029327392578125e-02 -1.537117213010787964e-01 -1.886400133371353149e-01 2.673119306564331055e-02 -6.297263503074645996e-02 -2.551289498805999756e-01 -2.523518539965152740e-02 7.471530139446258545e-02
-1.122594997286796570e-01 -7.031691260635852814e-03 -2.465921938419342041e-01 -3.985592722892761230e-01 -3.253951668739318848e-02 -2.214080840349197388e-01 -8.907442539930343628e-02 -4.383447170257568359e-01 -6.900287419557571411e-02 -1.613320410251617432e-01
1.218679477460682392e-03 -2.042074054479598999e-01 7.192833721637725830e-02 -2.247782200574874878e-01 -1.227070298045873642e-02 -6.492809951305389404e-02 -1.202194467186927795e-01 -2.267793864011764526e-01 -3.075606822967529297e-01 2.637231536209583282e-02
-2.782521545886993408e-01 -5.382094532251358032e-03 1.627212949097156525e-02 3.712315112352371216e-02 -2.463730126619338989e-01 -1.763187348842620850e-01 -1.521880831569433212e-02 -7.443545758724212646e-02 -1.128279487602412701e-03 -2.508853934705257416e-02
5.434204638004302979e-02 -2.870279550552368164e-01 -3.073145449161529541e-01 -1.068327352404594421e-01 5.853711068630218506e-02 3.735382109880447388e-02 -1.424543908797204494e-03 -2.892443239688873291e-01 -1.949446052312850952e-01 -1.897608488798141479e-02
-5.318349599838256836e-02 -2.534900307655334473e-01 -3.943790793418884277e-01 -6.135118007659912109e-02 5.541885644197463989e-02 -3.164655566215515137e-01 -3.032647967338562012e-01 -1.701499819755554199e-01 -9.513523429632186890e-02 -2.508998103439807892e-02
-2.043465673923492432e-01 5.399446561932563782e-02 -4.837422817945480347e-02 1.547842323780059814e-01 -4.612954705953598022e-02 1.525199413299560547e-02 -1.140644699335098267e-01 1.035929657518863678e-02 -1.680803596973419189e-01 -2.725764811038970947e-01
-4.854118078947067261e-02 -1.426860988140106201e-01 -4.634526669979095459e-01 -4.222551286220550537e-01 -2.881071567535400391e-01 -1.597799956798553467e-01 5.698568746447563171e-02 9.064359962940216064e-02 -2.618321180343627930e-01 -1.821620464324951172e-01
-9.939780086278915405e-02 1.081683486700057983e-02 5.884912982583045959e-02 8.189886808395385742e-02 -3.292049169540405273e-01 3.754830732941627502e-02 -3.082599639892578125e-01 -3.476140554994344711e-03 1.398136466741561890e-02 -5.578102171421051025e-02
-1.161611750721931458e-01 -4.748984239995479584e-03 -2.732398509979248047e-01 -1.455503851175308228e-01 -3.499618172645568848e-02 -3.970124945044517517e-02 -1.743050292134284973e-02 -9.359450638294219971e-02 -1.520653255283832550e-02 -2.531662285327911377e-01
-7.572930306196212769e-02 -4.732200205326080322e-01 -3.151117265224456787e-01 -8.171521127223968506e-02 7.068222016096115112e-02 9.038145653903484344e-03 -6.650846451520919800e-02 2.805025689303874969e-02 -4.241620600223541260e-01 -1.108287274837493896e-01
-3.870479464530944824e-01 6.873591337352991104e-03 -3.385125100612640381e-01 -4.375003874301910400e-01 -1.669311523437500000e-01 -1.698972135782241821e-01 1.098653227090835571e-01 -3.839575052261352539e-01 -2.627205103635787964e-02 7.554850541055202484e-03
1.322635263204574585e-01 4.532036930322647095e-02 -2.338386178016662598e-01 -3.923263773322105408e-02 -8.128474652767181396e-02 -2.912109792232513428e-01 1.499705389142036438e-02 -2.210244387388229370e-01 4.542376473546028137e-02 -1.201210357248783112e-02
-1.672633923590183258e-02 -3.107814192771911621e-01 -3.774640336632728577e-02 -1.740436851978302002e-01 1.657998934388160706e-02 7.335916161537170410e-02 -4.318026825785636902e-02 4.925910010933876038e-02 -2.850391566753387451e-01 -9.990643709897994995e-02
-3.847868442535400391e-01 -4.904364049434661865e-02 -1.911714076995849609e-01 -2.822041511535644531e-01 2.712735161185264587e-02 -4.232182502746582031e-01 -3.360961377620697021e-01 3.422149270772933960e-02 -3.908066079020500183e-02 -1.096639316529035568e-02
-3.961351811885833740e-01 -3.525705337524414062e-01 1.080965027213096619e-01 -1.440850496292114258e-01 -1.019913628697395325e-01 -9.244482219219207764e-02 -1.928235143423080444e-01 -2.266255319118499756e-01 -3.587136566638946533e-01 -1.692678406834602356e-02
-1.961706429719924927e-01 -2.009138613939285278e-01 -1.508719660341739655e-02 9.487679600715637207e-02 -1.779199205338954926e-02 6.601789593696594238e-02 1.978343166410923004e-02 -2.727391123771667480e-01 -1.316590309143066406e-01 -1.591711640357971191e-01
-3.239163756370544434e-01 2.401818148791790009e-02 -4.966479539871215820e-02 -2.805532515048980713e-01 -1.002485081553459167e-01 -7.282108813524246216e-02 1.107701193541288376e-02 -2.145270816981792450e-02 -3.952292352914810181e-02 1.122361719608306885e-01
-9.133109822869300842e-03 -4.339168369770050049e-01 -1.773248314857482910e-01 7.315142452716827393e-02 -8.073197677731513977e-03 -2.578652203083038330e-01 -3.306444734334945679e-02 -1.179253086447715759e-01 -3.753258585929870605e-01 -2.640018761157989502e-01
1.111295423470437527e-03 -2.752597630023956299e-01 9.529563598334789276e-03 6.022457033395767212e-02 -2.345503568649291992e-01 9.655238687992095947e-02 -5.613570660352706909e-02 -2.831746935844421387e-01 -1.488856822252273560e-01 8.142707496881484985e-02
-2.899373173713684082e-01 2.532055601477622986e-02 7.181929424405097961e-03 5.996325612068176270e-02 -2.783036828041076660e-01 -1.345921754837036133e-01 4.373421892523765564e-03 3.892315551638603210e-02 -2.888132818043231964e-02 -2.408506423234939575e-01
1.223296858370304108e-02 -2.005406618118286133e-01 5.502074211835861206e-02 -2.295117229223251343e-01 -3.779075145721435547e-01 -2.712790668010711670e-01 -2.327862977981567383e-01 -2.312808185815811157e-01 -3.252907395362854004e-01 3.105159290134906769e-02
3.518554149195551872e-03 -2.775540053844451904e-01 -1.226310506463050842e-01 -1.901382654905319214e-01 7.763229776173830032e-03 -1.926161348819732666e-03 8.042372763156890869e-02 -3.360749185085296631e-01 1.463918946683406830e-02 -9.010110795497894287e-02
-2.950090765953063965e-01 -5.551080033183097839e-02 8.290942758321762085e-02 -3.281417489051818848e-01 -2.481216937303543091e-02 -1.139359846711158752e-01 -2.827598340809345245e-02 -2.482762932777404785e-01 -5.317632481455802917e-02 -2.072566002607345581e-01
-2.532634139060974121e-01 -2.526133954524993896e-01 1.957437396049499512e-02 9.214146435260772705e-02 -3.608757257461547852e-01 -1.966988593339920044e-01 6.029957532882690430e-02 -1.251823036000132561e-03 -2.935129217803478241e-02 -9.974225610494613647e-02
-4.693917036056518555e-01 -4.510926306247711182e-01 -1.127104759216308594e-01 1.635952442884445190e-01 -1.445212066173553467e-01 -4.237326085567474365e-01 -7.108038663864135742e-01 -3.811236470937728882e-02 -3.234030604362487793e-01 3.165341913700103760e-02
-7.033853325992822647e-04 -2.700676023960113525e-01 -1.867994852364063263e-02 -1.569032371044158936e-01 -2.422591298818588257e-01 -1.311633884906768799e-01 -4.438145086169242859e-02 -7.246077060699462891e-02 -8.231564611196517944e-02 -2.905550003051757812e-01
1.055466383695602417e-02 -3.199012577533721924e-01 5.961663648486137390e-02 -1.294380426406860352e-01 -1.097710579633712769e-01 -3.351984024047851562e-01 -9.564182907342910767e-02 -3.519886434078216553e-01 -6.070718914270401001e-02 -4.169422015547752380e-02
4.939470812678337097e-02 -4.202373325824737549e-01 -9.470155835151672363e-02 4.403883591294288635e-02 5.271565541625022888e-02 8.482103049755096436e-02 4.549795016646385193e-02 -3.774095773696899414e-01 -1.391358226537704468e-01 -1.665846258401870728e-02
-2.172824889421463013e-01 -4.499959200620651245e-02 -5.974770337343215942e-02 -2.632474303245544434e-01 1.367186103016138077e-02 -2.310367375612258911e-01 -2.355959638953208923e-02 -4.757636040449142456e-02 -6.261618435382843018e-02 -1.595826596021652222e-01
-4.939150214195251465e-01 6.472242623567581177e-02 -4.771422594785690308e-02 2.573834545910358429e-02 1.703215390443801880e-02 -1.277615968137979507e-02 -2.685688734054565430e-01 3.013064712285995483e-02 -5.001283809542655945e-02 2.210166864097118378e-02
-2.382375001907348633e-01 -9.116870164871215820e-02 2.798292040824890137e-02 1.071291491389274597e-01 -2.772313058376312256e-01 2.936116978526115417e-02 -2.850083410739898682e-01 -3.066814839839935303e-01 1.901364512741565704e-02 -1.590442657470703125e-01
4.475398734211921692e-02 1.503712087869644165e-01 -8.026486262679100037e-03 -9.858889132738113403e-02 -2.708577215671539307e-01 -2.006679028272628784e-01 4.970764741301536560e-02 2.562877023592591286e-03 -2.251981645822525024e-01 -2.259613275527954102e-01
-3.711631298065185547e-01 -4.399387240409851074e-01 -3.853130340576171875e-01 -3.868011832237243652e-01 -1.695269197225570679e-01 -1.011498570442199707e-01 -2.815490402281284332e-02 -2.233224958181381226e-01 4.561177641153335571e-02 -1.545619964599609375e-02
-5.025624856352806091e-02 -4.237650632858276367e-01 -2.174023836851119995e-01 -8.194881677627563477e-02 -1.911534927785396576e-02 4.035640507936477661e-02 -5.411528050899505615e-02 -1.216936041601002216e-03 4.153748601675033569e-02 2.879295498132705688e-02
-2.825139760971069336e-01 5.439649149775505066e-02 -4.916680976748466492e-02 4.062530398368835449e-02 -2.351248711347579956e-01 9.629490971565246582e-02 -1.192818954586982727e-01 -1.007951572537422180e-01 -1.539934128522872925e-01 -2.782443165779113770e-01
-3.332614004611968994e-01 -2.527273893356323242e-01 -5.195661261677742004e-02 4.418012499809265137e-02 -4.146232903003692627e-01 -1.080227047204971313e-01 -5.401600003242492676e-01 2.451263135299086571e-03 -3.558965772390365601e-02 -4.159681871533393860e-02
-3.379063308238983154e-02 -4.540802836418151855e-01 -2.202105522155761719e-01 1.523600071668624878e-01 -3.970356881618499756e-01 -2.469428330659866333e-01 -1.741820424795150757e-01 -6.060195565223693848e-01 5.249568819999694824e-02 -2.943460643291473389e-01
-4.405680298805236816e-02 -1.635072231292724609e-01 9.843935258686542511e-04 -4.447548836469650269e-02 6.714937277138233185e-03 -2.896386012434959412e-02 -1.966278403997421265e-01 1.305508799850940704e-02 -1.859881132841110229e-01 -2.197059541940689087e-01
-1.956440880894660950e-02 -2.303656637668609619e-01 -1.531775016337633133e-02 3.557379171252250671e-02 -4.425063431262969971e-01 -9.066727012395858765e-02 -3.224775493144989014e-01 -2.912859916687011719e-01 -1.659420430660247803e-01 2.146244235336780548e-02
-5.199583172798156738e-01 -2.594321966171264648e-01 -9.113854169845581055e-02 8.204750716686248779e-02 1.124537885189056396e-01 2.236056327819824219e-02 -3.423030376434326172e-01 -1.680461317300796509e-02 3.099586442112922668e-02 1.432648487389087677e-02
1.573926955461502075e-02 -7.760097086429595947e-02 -3.233317732810974121e-01 -3.354749977588653564e-01 -3.616033196449279785e-01 -3.011269681155681610e-02 -3.079484961926937103e-02 -9.926149621605873108e-03 -2.375630289316177368e-02 -2.343487739562988281e-01
-1.376253217458724976e-01 4.151044413447380066e-02 -4.432865884155035019e-03 -1.355506628751754761e-01 6.871627271175384521e-02 -6.801986694335937500e-02 -2.748448252677917480e-01 -1.036509871482849121e-01 -3.006043136119842529e-01 -9.885655343532562256e-02
3.074994497001171112e-02 -2.786859571933746338e-01 -1.037015765905380249e-01 6.988824158906936646e-02 -8.198926597833633423e-02 -3.187158703804016113e-02 -2.732140719890594482e-01 -1.554896961897611618e-02 5.981342867016792297e-02 -9.864347428083419800e-02
-1.351955980062484741e-01 -3.178643286228179932e-01 -3.321254253387451172e-01 -1.894498467445373535e-01 -5.995764583349227905e-02 -8.105310611426830292e-03 -7.326775044202804565e-02 -1.333785504102706909e-01 -5.828066263347864151e-03 4.960929974913597107e-02
-2.664944231510162354e-01 -5.379760265350341797e-02 -6.561261415481567383e-02 -1.120610814541578293e-02 -1.880815327167510986e-01 -2.451660037040710449e-01 -4.196762442588806152e-01 4.687719792127609253e-02 2.689160220324993134e-02 -1.105836704373359680e-01
-3.953691199421882629e-02 -3.808006346225738525e-01 -9.525670856237411499e-02 1.064287275075912476e-01 8.312265388667583466e-03 1.732313819229602814e-02 3.074846602976322174e-02 -1.703532971441745758e-02 -2.521228790283203125e-01 -1.264650374650955200e-01
-8.222939074039459229e-02 -2.840224504470825195e-01 -1.074503511190414429e-01 -3.635930716991424561e-01 -1.287372857332229614e-01 -1.744791567325592041e-01 -1.115527451038360596e-01 3.760413452982902527e-02 -4.358735382556915283e-01 -3.768452256917953491e-02
-2.711047530174255371e-01 -3.244363367557525635e-01 -1.047988422214984894e-02 -7.946771383285522461e-02 -2.196852117776870728e-01 -2.391146272420883179e-01 -1.087982654571533203e-01 -1.670676618814468384e-01 -2.590086683630943298e-02 -3.428046107292175293e-01
-1.853897869586944580e-01 -2.562984228134155273e-01 1.885762903839349747e-03 -3.957341238856315613e-02 -3.884085714817047119e-01 1.579563878476619720e-02 -1.938533633947372437e-01 -1.465458124876022339e-01 -4.441431164741516113e-02 -1.337727606296539307e-01
4.731883108615875244e-02 3.322958946228027344e-02 -3.460815176367759705e-02 1.400303095579147339e-01 -4.438577294349670410e-01 -1.518863290548324585e-01 -2.704700231552124023e-01 -1.806087791919708252e-01 5.098912119865417480e-02 -2.445739805698394775e-01
-3.415115773677825928e-01 -3.953341022133827209e-02 -7.701499015092849731e-02 -4.012821316719055176e-01 2.891735173761844635e-02 -6.071955710649490356e-02 -1.086816489696502686e-01 -2.372175455093383789e-01 -7.043427228927612305e-02 -2.710392177104949951e-01
-2.759843170642852783e-01 1.797302626073360443e-02 -9.173870831727981567e-02 1.163209155201911926e-01 -2.678791582584381104e-01 8.708619326353073120e-02 2.096691355109214783e-02 -1.427187025547027588e-01 9.581574052572250366e-02 -2.573866546154022217e-01
-1.129321306943893433e-01 -1.687213778495788574e-01 -7.672000676393508911e-02 -1.652760952711105347e-01 -3.225555121898651123e-01 2.908148430287837982e-02 -7.858338207006454468e-02 -1.435473859310150146e-01 -8.612225204706192017e-02 -3.217524290084838867e-01
-2.676776610314846039e-02 2.350130118429660797e-02 -2.713185250759124756e-01 -3.104975223541259766e-01 -1.394844204187393188e-01 4.739054292440414429e-02 4.258689470589160919e-03 -1.244515255093574524e-01 2.512550726532936096e-02 4.584006220102310181e-02
-2.191793322563171387e-01 -1.187689453363418579e-01 2.082867920398712158e-02 3.592628985643386841e-02 5.061349272727966309e-02 -1.555067300796508789e-01 -5.269270390272140503e-02 3.837017714977264404e-02 -2.977775335311889648e-01 -3.869097530841827393e-01
-1.326674968004226685e-01 -1.234166473150253296e-01 3.599802777171134949e-02 -5.435258522629737854e-02 7.054635137319564819e-02 -3.279339075088500977e-01 -1.490309238433837891e-01 -2.238397896289825439e-01 5.640105158090591431e-02 -2.516719698905944824e-01
2.770184539258480072e-02 -1.059126630425453186e-01 -2.845136523246765137e-01 -4.316949546337127686e-01 -2.479075640439987183e-02 -8.768145740032196045e-02 5.530895665287971497e-02 -1.944898217916488647e-01 -4.848673567175865173e-02 -3.358499407768249512e-01
-4.254674166440963745e-02 -1.933074146509170532e-01 -2.855116724967956543e-01 -3.474774062633514404e-01 -2.591311931610107422e-02 -1.794980913400650024e-01 -1.972128264605998993e-02 -4.204143583774566650e-01 -3.372270241379737854e-02 -5.101121589541435242e-02
-2.216276973485946655e-01 -9.324073791503906250e-02 -1.546898782253265381e-01 4.461021721363067627e-02 -2.575924694538116455e-01 7.584340404719114304e-03 -2.240545898675918579e-01 -1.837450265884399414e-02 -2.438060790300369263e-01 -1.418199241161346436e-01
5.018544197082519531e-02 -2.599545419216156006e-01 -2.396696209907531738e-01 1.065645273774862289e-02 -2.960463464260101318e-01 3.314591199159622192e-02 -2.213024161756038666e-02 -1.312653999775648117e-02 -1.735142767429351807e-01 -1.768367141485214233e-01
-4.285131022334098816e-02 -2.168924212455749512e-01 -1.013480052351951599e-01 -1.603581756353378296e-01 3.592881560325622559e-02 -2.618744969367980957e-01 -4.268667995929718018e-01 -2.103031277656555176e-01 -4.105427861213684082e-01 3.179059177637100220e-02
-6.428240984678268433e-02 4.261179268360137939e-02 -2.780756950378417969e-01 -9.670960158109664917e-02 -2.979886233806610107e-01 2.618435071781277657e-03 3.357192501425743103e-02 8.036714047193527222e-02 -2.028005421161651611e-01 -1.618698537349700928e-01
-3.436135649681091309e-01 4.638762213289737701e-03 -4.423764720559120178e-02 2.371742017567157745e-02 -2.691954672336578369e-01 5.025553703308105469e-02 -5.904931575059890747e-02 -5.951116234064102173e-02 -1.059617325663566589e-01 -3.868896067142486572e-01
-4.512940347194671631e-01 6.092469673603773117e-03 5.113186314702033997e-02 -1.587190665304660797e-02 3.327301889657974243e-02 -2.633540630340576172e-01 -5.974934101104736328e-01 5.100386589765548706e-02 -5.624948441982269287e-02 2.864731661975383759e-02
-3.604812324047088623e-01 -6.029841676354408264e-02 -3.694139048457145691e-02 -1.671658903360366821e-01 -2.743125259876251221e-01 -2.231722511351108551e-02 -1.996871083974838257e-01 -3.221066892147064209e-01 -1.834120899438858032e-01 -5.120074152946472168e-01
-3.068196773529052734e-02 -2.061859667301177979e-01 -5.738781020045280457e-02 -1.887195557355880737e-01 -3.615345060825347900e-01 -3.726767748594284058e-02 4.253233596682548523e-02 -9.388887137174606323e-02 -1.955485790967941284e-01 -4.617634415626525879e-02
-2.006009370088577271e-01 -4.439582824707031250e-01 -3.581863343715667725e-01 -1.647981069982051849e-02 -6.733164191246032715e-02 -2.370715327560901642e-02 -3.931651413440704346e-01 -2.264136523008346558e-01 -1.184902638196945190e-01 5.752904340624809265e-02
1.188183762133121490e-02 -2.047716639935970306e-03 -2.589227557182312012e-01 -2.511793673038482666e-01 -1.764787584543228149e-01 2.985885366797447205e-02 1.025274582207202911e-02 -2.510492801666259766e-01 4.819092899560928345e-02 -5.703156068921089172e-02
-1.946401745080947876e-01 -6.741312146186828613e-02 -9.486161172389984131e-02 -3.209168016910552979e-01 -1.565191298723220825e-01 -2.364657074213027954e-01 4.366277903318405151e-02 -2.929203808307647705e-01 -7.722717523574829102e-02 -2.548397518694400787e-02
-2.102130055427551270e-01 -2.429340630769729614e-01 -1.486189663410186768e-01 -1.215399876236915588e-01 -3.738596737384796143e-01 4.658690467476844788e-02 1.268748100847005844e-02 -2.303762584924697876e-01 5.373549088835716248e-02 1.241408754140138626e-02
-3.537109196186065674e-01 4.431331995874643326e-03 -2.657326757907867432e-01 -2.050809711217880249e-01 2.218899317085742950e-03 9.624031186103820801e-02 3.617030009627342224e-02 6.022878363728523254e-02 2.036539465188980103e-02 1.075846608728170395e-02
3.944939747452735901e-02 -3.380562411621212959e-03 3.570919483900070190e-02 -2.082315683364868164e-01 -1.446914821863174438e-01 -3.319723308086395264e-01 -2.106810510158538818e-01 -1.888300925493240356e-01 -1.324028521776199341e-01 -5.795765668153762817e-02
2.131829410791397095e-02 -3.910383880138397217e-01 -2.832419574260711670e-01 -2.516976892948150635e-01 1.076198089867830276e-02 -1.574465781450271606e-01 3.618507087230682373e-02 -3.519434481859207153e-02 -1.783104091882705688e-01 -2.947570085525512695e-01
5.382335931062698364e-02 -5.724148750305175781e-01 -3.565202653408050537e-01 -2.250002138316631317e-02 7.308065146207809448e-02 -4.143881797790527344e-01 -3.023138344287872314e-01 -2.510053478181362152e-02 -2.762925624847412109e-01 8.902923017740249634e-02
8.392870426177978516e-02 -1.895823329687118530e-02 -1.365351676940917969e-01 -1.346452236175537109e-01 -8.930175751447677612e-02 -3.988018631935119629e-01 -7.758384943008422852e-02 -4.779827722813934088e-04 -9.716258198022842407e-02 1.069917064160108566e-02
-6.894936412572860718e-02 -4.479135572910308838e-01 -2.567689120769500732e-01 -4.921040534973144531e-01 -1.135379001498222351e-01 -9.557361900806427002e-02 5.935829877853393555e-02 -4.811072051525115967e-01 -7.271631807088851929e-02 1.234840080142021179e-01
3.448575735092163086e-02 -1.910397708415985107e-01 1.571107469499111176e-02 -8.607858791947364807e-03 -2.866426110267639160e-01 -1.573344916105270386e-01 -4.393897056579589844e-01 2.321574464440345764e-02 -2.151659131050109863e-01 1.209934055805206299e-01
-1.198267936706542969e-01 -3.012060523033142090e-01 -2.503068745136260986e-01 1.470556482672691345e-02 -2.441364526748657227e-01 -3.329284191131591797e-01 -4.857704043388366699e-01 -6.516327708959579468e-02 -3.640371263027191162e-01 -1.322679873555898666e-02
-3.445816934108734131e-01 -1.484583020210266113e-01 1.192522142082452774e-02 1.853747293353080750e-02 -3.295578062534332275e-02 -3.725802525877952576e-02 -4.389744400978088379e-01 6.120976805686950684e-02 3.008593805134296417e-02 -6.428642664104700089e-03
2.997094998136162758e-03 -1.785628795623779297e-01 -2.938555479049682617e-01 -2.895151078701019287e-01 -1.406250596046447754e-01 -3.309958428144454956e-02 -1.159621700644493103e-01 1.078241318464279175e-01 -2.631750702857971191e-01 -4.056558758020401001e-02
5.650912877172231674e-03 -2.923647165298461914e-01 -4.261025488376617432e-01 -1.262555867433547974e-01 -1.729706376791000366e-01 4.885610193014144897e-02 4.020996391773223877e-03 -1.407185345888137817e-01 -2.198199033737182617e-01 -2.924673855304718018e-01
-6.440897937864065170e-03 1.240221317857503891e-02 -1.333198249340057373e-01 3.159256279468536377e-02 -7.797059603035449982e-03 -2.312912195920944214e-01 2.308239974081516266e-02 -2.132937312126159668e-01 2.602889947593212128e-02 -4.014506191015243530e-02
1.037033423781394958e-01 -2.160137742757797241e-01 -3.914217054843902588e-01 -2.055496536195278168e-02 -1.048821061849594116e-01 7.717821002006530762e-02 3.172145783901214600e-02 7.089690864086151123e-02 -3.106321096420288086e-01 -7.977867126464843750e-02
2.898713201284408569e-02 -4.269775152206420898e-01 5.594391003251075745e-02 -2.207301408052444458e-01 -2.598909437656402588e-01 -2.559350132942199707e-01 -2.506412565708160400e-01 -2.064844369888305664e-01 6.957145035266876221e-02 3.071180172264575958e-02
1.385915093123912811e-02 -3.370172381401062012e-01 -1.731628924608230591e-02 7.086386531591415405e-02 -1.715558320283889771e-01 5.499037727713584900e-02 4.614935815334320068e-02 -2.942675054073333740e-01 1.395168062299489975e-02 -2.387780137360095978e-02
-4.082889109849929810e-02 7.153901457786560059e-02 -3.000522255897521973e-01 -2.385111004114151001e-01 -1.228768378496170044e-01 -1.028349902480840683e-02 -5.559164881706237793e-01 9.897862374782562256e-02 -2.477243542671203613e-01 2.204195037484169006e-02
-3.398257195949554443e-01 9.361974149942398071e-02 -3.440226912498474121e-01 -2.588565945625305176e-01 -4.070844128727912903e-02 -4.164774417877197266e-01 -1.011970415711402893e-01 9.322333335876464844e-02 -1.965558826923370361e-01 -1.511377096176147461e-01
-4.911541342735290527e-01 -4.197486117482185364e-02 -2.277135401964187622e-01 1.119561791419982910e-01 -6.820653378963470459e-02 -3.233244419097900391e-01 -6.356050968170166016e-01 -2.357522398233413696e-02 -2.472662031650543213e-01 1.414731610566377640e-02
-1.591161638498306274e-01 5.915221571922302246e-02 -3.864337876439094543e-02 -4.759556055068969727e-02 1.985837705433368683e-02 -3.583003580570220947e-01 -2.968444526195526123e-01 -6.621563807129859924e-03 -2.590292096138000488e-01 1.950868591666221619e-02
-5.820510443300008774e-03 -8.203478157520294189e-02 -3.272837996482849121e-01 -1.814386248588562012e-01 -3.252715766429901123e-01 1.617246493697166443e-02 6.757929921150207520e-03 -3.573265373706817627e-01 -6.625056266784667969e-02 -3.596067726612091064e-01
-4.406315982341766357e-01 -7.437299191951751709e-02 -2.180943489074707031e-01 8.871701359748840332e-02 -4.242789000272750854e-03 1.088276877999305725e-01 -3.604447841644287109e-01 3.013614006340503693e-02 -4.472343996167182922e-02 3.511353582143783569e-02
-3.111401498317718506e-01 -2.174941748380661011e-01 -2.518634498119354248e-01 -1.839334331452846527e-02 -2.460184395313262939e-01 5.041950568556785583e-02 -2.252232879400253296e-01 -8.075952529907226562e-02 -3.133273720741271973e-01 1.893173903226852417e-02
-1.523359399288892746e-02 1.613115072250366211e-01 -3.831999301910400391e-01 -4.489741325378417969e-01 1.113011613488197327e-01 -2.103151977062225342e-01 -9.520269930362701416e-02 -4.951494932174682617e-02 -1.365530341863632202e-01 -5.317437648773193359e-02
-1.475941687822341919e-01 -2.738330662250518799e-01 -4.254872202873229980e-01 -4.125820845365524292e-02 -5.202034711837768555e-01 8.254919201135635376e-03 -1.001762822270393372e-01 -2.970582842826843262e-01 -6.097063794732093811e-02 -1.049399301409721375e-01
-2.691708803176879883e-01 1.355389319360256195e-02 -2.825832962989807129e-01 -3.053250312805175781e-01 3.975725919008255005e-02 -9.115777909755706787e-02 -7.859228551387786865e-02 -2.330942004919052124e-01 1.048627868294715881e-02 2.143493667244911194e-02
3.995550051331520081e-02 -1.471143029630184174e-02 -2.574333548545837402e-02 -1.542225182056427002e-01 -1.014261916279792786e-01 -3.411901369690895081e-02 -2.524993941187858582e-02 -1.048090979456901550e-01 -4.226580634713172913e-02 -3.474048152565956116e-02
6.842349190264940262e-03 -4.210127890110015869e-01 -1.571384072303771973e-01 -2.095935195684432983e-01 -2.323073446750640869e-01 -1.923813968896865845e-01 -1.578202098608016968e-01 -9.159241802990436554e-03 6.550044566392898560e-02 -1.471329927444458008e-01
-7.756525278091430664e-02 9.996116906404495239e-02 -3.243104815483093262e-01 -4.234270453453063965e-01 -1.512921005487442017e-01 -3.065116405487060547e-01 -4.303956925868988037e-01 -4.248255863785743713e-02 -3.365208208560943604e-01 -6.466574221849441528e-02
-2.656837701797485352e-01 -1.708795279264450073e-01 -5.307853221893310547e-02 -2.056526392698287964e-01 -7.442326843738555908e-02 -5.106258988380432129e-01 5.826330929994583130e-02 1.028391197323799133e-01 -4.568132460117340088e-01 -1.645025461912155151e-01
-3.363893032073974609e-01 -3.369630873203277588e-02 -5.043587088584899902e-02 -2.554311603307723999e-02 -2.958194315433502197e-01 -1.054669916629791260e-01 -1.887756884098052979e-01 1.346641220152378082e-03 -2.453269213438034058e-01 -2.003375589847564697e-01
-9.510893374681472778e-02 -7.863519340753555298e-02 5.076099932193756104e-02 8.939843624830245972e-02 -2.187853306531906128e-01 8.505865000188350677e-03 -3.339816331863403320e-01 -2.973449230194091797e-01 -2.288150042295455933e-01 1.169319525361061096e-01
-5.263167023658752441e-01 7.771029323339462280e-02 -2.371822148561477661e-01 8.105205371975898743e-03 -1.880979724228382111e-02 -3.347583711147308350e-01 -2.291199862957000732e-01 6.778195500373840332e-02 3.265397623181343079e-02 -7.905866950750350952e-02
-1.883904933929443359e-01 -1.204315871000289917e-01 -6.465000659227371216e-02 7.671749591827392578e-02 -2.782134413719177246e-01 2.500086277723312378e-02 -3.856467604637145996e-01 2.922205999493598938e-02 -1.006032247096300125e-02 -7.083588838577270508e-02
-1.899415850639343262e-01 -1.060338914394378662e-01 7.439887616783380508e-03 4.957356676459312439e-02 -1.465783715248107910e-01 -3.391554579138755798e-02 1.149058341979980469e-02 -1.113808676600456238e-01 -2.654737234115600586e-02 -2.245314270257949829e-01
2.450386434793472290e-02 -3.390543162822723389e-01 -4.908281937241554260e-02 7.535267621278762817e-02 -4.799498617649078369e-01 2.056810818612575531e-02 5.169564113020896912e-02 -2.293840050697326660e-01 5.386880412697792053e-02 -1.839869171380996704e-01
1.563355699181556702e-02 3.310686349868774414e-02 -7.596484571695327759e-02 -5.817287787795066833e-02 -1.772799938917160034e-01 -1.597421467304229736e-01 -1.132932305335998535e-02 -3.810028433799743652e-01 -1.874891854822635651e-02 -4.165288805961608887e-01
-3.321654200553894043e-01 6.763143837451934814e-02 -1.464274823665618896e-01 6.296200305223464966e-02 5.719146504998207092e-02 3.633381053805351257e-02 -2.640936374664306641e-01 1.309977099299430847e-02 4.059820249676704407e-02 -1.796010509133338928e-02
-1.717318035662174225e-02 -3.646122813224792480e-01 -4.932988807559013367e-02 -3.269988810643553734e-03 -3.100633025169372559e-01 -1.546183824539184570e-01 -2.439439147710800171e-01 9.450322017073631287e-03 -8.276264369487762451e-02 -4.169428646564483643e-01
2.645954489707946777e-02 6.768134236335754395e-02 2.745896764099597931e-02 6.527499109506607056e-02 -1.975376754999160767e-01 -1.211605668067932129e-01 -1.857008934020996094e-01 4.825142025947570801e-02 -1.776173412799835205e-01 -2.503447234630584717e-02
1.473153233528137207e-01 -1.397617608308792114e-01 -4.913050830364227295e-01 -4.617634415626525879e-01 2.783473022282123566e-02 -3.461797237396240234e-01 -1.544180810451507568e-01 -3.445640802383422852e-01 -3.499079346656799316e-01 3.460669424384832382e-03
-4.781353175640106201e-01 6.485207378864288330e-02 1.171726547181606293e-02 -2.371595203876495361e-01 1.008726581931114197e-01 -1.242344602942466736e-01 -3.030399680137634277e-01 -1.413792967796325684e-01 -3.703064620494842529e-01 -4.282745718955993652e-02
-5.596882477402687073e-02 1.669870503246784210e-02 -3.431895375251770020e-01 -3.391447067260742188e-01 -3.307353705167770386e-02 -6.468033790588378906e-02 -1.887437552213668823e-01 -2.266330868005752563e-01 6.055526435375213623e-02 -2.359517849981784821e-03
-1.599786579608917236e-01 -2.177373506128787994e-02 -3.280657902359962463e-02 -6.504692882299423218e-02 -1.932688355445861816e-01 -8.086377056315541267e-04 4.027228429913520813e-02 -3.817897755652666092e-03 -3.650738857686519623e-03 -2.493480443954467773e-01
-2.228274196386337280e-01 -2.645700871944427490e-01 8.033899962902069092e-02 -1.767238378524780273e-01 4.087065812200307846e-03 6.610164046287536621e-02 -4.036171361804008484e-03 -3.596074879169464111e-01 -2.011319398880004883e-01 -2.314869165420532227e-01
-2.022756785154342651e-01 3.054832573980093002e-03 -4.048146307468414307e-02 9.203466773033142090e-02 -1.939825117588043213e-01 8.890881389379501343e-02 5.521998554468154907e-02 4.130830243229866028e-02 -1.965923309326171875e-01 -9.831591695547103882e-02
-5.557872354984283447e-02 -1.248878315091133118e-01 -5.398875847458839417e-02 -2.247831225395202637e-01 -6.050133705139160156e-02 -4.502203688025474548e-02 -1.199977323412895203e-01 -3.279605805873870850e-01 -9.518953412771224976e-02 -1.140785217285156250e-01
-1.473165303468704224e-02 -1.595072150230407715e-01 -2.400384992361068726e-01 7.678490132093429565e-02 -2.235852479934692383e-01 8.529818058013916016e-02 -3.476710021495819092e-01 -3.051961958408355713e-01 -3.582369089126586914e-01 1.920404285192489624e-02
-1.373922377824783325e-01 -1.812270134687423706e-01 6.789528578519821167e-02 5.318811908364295959e-02 -3.074443712830543518e-02 -8.286606520414352417e-02 -2.318146675825119019e-01 -4.369254410266876221e-02 -2.475270777940750122e-01 -2.793833911418914795e-01
-2.362867444753646851e-01 3.695031628012657166e-02 -2.270573228597640991e-01 -2.255003005266189575e-01 7.293681800365447998e-02 -2.625913321971893311e-01 -1.048340424895286560e-01 -3.414016962051391602e-01 5.586146842688322067e-03 1.620862260460853577e-02
-1.069011762738227844e-01 -3.723020851612091064e-02 -2.498223781585693359e-01 -6.105424463748931885e-02 1.353869959712028503e-02 -2.811902463436126709e-01 1.371062994003295898e-01 -1.838378310203552246e-01 -6.241250410676002502e-02 -2.956088781356811523e-01
2.830704397638328373e-05 -3.153110444545745850e-01 -1.376101188361644745e-02 2.175183035433292389e-02 -1.175614446401596069e-01 1.917621493339538574e-02 8.073163777589797974e-02 -4.258809983730316162e-01 -9.630259871482849121e-02 -1.522903293371200562e-01
9.441415965557098389e-02 -6.016541719436645508e-01 -2.799628376960754395e-01 -1.874647140502929688e-01 -2.185385674238204956e-01 4.514368623495101929e-02 4.749397560954093933e-02 -7.312951982021331787e-02 -2.634077072143554688e-01 7.078713178634643555e-02
-1.115251630544662476e-01 -4.636433124542236328e-01 5.268587544560432434e-02 -1.316911131143569946e-01 8.241733908653259277e-02 -4.129461646080017090e-01 -1.332778781652450562e-01 1.005308777093887329e-01 -1.247288584709167480e-01 6.191202998161315918e-02
-3.907878696918487549e-01 -1.900335103273391724e-01 5.799435079097747803e-03 5.405548214912414551e-02 -1.760775744915008545e-01 3.196011483669281006e-02 3.386823087930679321e-02 -1.731360796838998795e-03 -1.828471720218658447e-01 -1.781868189573287964e-01
-9.887614846229553223e-02 -4.907324016094207764e-01 -1.764029860496520996e-01 -2.154791206121444702e-01 -2.080440707504749298e-02 -8.889541774988174438e-02 -3.240160271525382996e-02 -8.023465424776077271e-02 -1.054317653179168701e-01 -2.430940233170986176e-02
-1.526401489973068237e-01 -8.108388632535934448e-02 -6.732473615556955338e-03 -2.216540575027465820e-01 6.776429712772369385e-02 -3.534318879246711731e-02 6.491555273532867432e-02 -2.935274876654148102e-02 -3.716827929019927979e-01 -2.065005749464035034e-01
1.137181073427200317e-01 -3.326088488101959229e-01 -3.219774663448333740e-01 4.027019068598747253e-02 -3.239145874977111816e-01 -2.020577527582645416e-02 -8.472570031881332397e-02 -1.509699672460556030e-01 -6.668305490165948868e-03 -4.141781479120254517e-02
-3.229734599590301514e-01 -2.782312929630279541e-01 -3.520995378494262695e-01 9.375165216624736786e-03 8.468949049711227417e-02 -1.324289888143539429e-01 5.139371380209922791e-02 -3.755846619606018066e-01 -7.137910276651382446e-02 5.771662294864654541e-02
-2.044271826744079590e-01 -2.055474221706390381e-01 7.124263048171997070e-02 -1.340188086032867432e-01 -1.460289359092712402e-01 -2.069573253393173218e-01 -2.528381347656250000e-01 -2.642091810703277588e-01 -4.664390161633491516e-02 -4.527266919612884521e-01
-4.762343168258666992e-01 1.278700977563858032e-01 -1.833557784557342529e-01 -4.619679972529411316e-02 -1.401861608028411865e-01 -2.518219351768493652e-01 -4.618599116802215576e-01 -1.773775815963745117e-01 -2.348968684673309326e-01 -1.353852450847625732e-01
-3.251199424266815186e-01 -5.265224725008010864e-02 -3.932102322578430176e-01 -2.140800356864929199e-01 -2.064739912748336792e-02 1.644854433834552765e-03 -4.086550772190093994e-01 4.750676918774843216e-03 2.414095774292945862e-02 6.162489205598831177e-02
-1.569083482027053833e-01 -3.870514929294586182e-01 3.490856615826487541e-03 -8.136998862028121948e-02 -2.581156492233276367e-01 -1.333970278501510620e-01 2.255815267562866211e-02 -3.316139578819274902e-01 -2.731943316757678986e-02 -9.668491035699844360e-02
7.006107829511165619e-03 1.676136068999767303e-02 -7.498725503683090210e-02 -1.618423610925674438e-01 -6.073682010173797607e-02 4.805347695946693420e-02 -6.879018247127532959e-02 -2.381226047873497009e-03 -1.636341810226440430e-01 1.092521101236343384e-02
-2.337376028299331665e-01 -2.528800964355468750e-01 -2.924838662147521973e-02 1.512752771377563477e-01 3.685833886265754700e-02 -6.180014088749885559e-02 4.581720381975173950e-02 -2.660900950431823730e-01 -1.824956834316253662e-01 -3.828905224800109863e-01
-3.311274349689483643e-01 4.433301091194152832e-02 -5.736341327428817749e-02 -2.095305472612380981e-01 -1.674835830926895142e-01 -1.345980167388916016e-01 3.411216288805007935e-02 1.391147673130035400e-01 4.360439628362655640e-02 -2.795869410037994385e-01
-1.441467702388763428e-01 7.494044303894042969e-02 5.620893090963363647e-02 -3.058156669139862061e-01 -4.567247629165649414e-01 -1.276347637176513672e-01 -2.247727960348129272e-01 -1.242699846625328064e-01 -2.705024480819702148e-01 -2.814885079860687256e-01
-3.194237053394317627e-01 1.203209860250353813e-03 -7.535008341073989868e-02 5.684826150536537170e-02 -2.849996685981750488e-01 -7.311699446290731430e-03 -1.567200571298599243e-01 6.542666349560022354e-03 4.096034914255142212e-02 -3.163263797760009766e-01
-2.511612772941589355e-01 -4.061762243509292603e-02 -2.569911181926727295e-01 8.209864795207977295e-02 2.010411210358142853e-02 -2.207635939121246338e-01 -2.447057515382766724e-01 -2.315746992826461792e-01 5.725426971912384033e-02 -9.911752492189407349e-02
-2.808079496026039124e-02 -3.780355751514434814e-01 3.686705231666564941e-02 1.587346345186233521e-01 -1.858775317668914795e-01 1.806328073143959045e-02 1.447633747011423111e-02 -1.509644985198974609e-01 -1.645090132951736450e-01 -3.451411128044128418e-01
-2.259385138750076294e-01 1.251540482044219971e-01 -6.195124611258506775e-02 -2.966582402586936951e-02 5.927401408553123474e-02 -1.351601630449295044e-01 -3.014625906944274902e-01 -1.626248285174369812e-02 -1.655029654502868652e-01 -1.865395754575729370e-01
-1.850219964981079102e-01 -7.462005317211151123e-02 -1.204759553074836731e-01 2.212791703641414642e-02 -1.512952446937561035e-01 -3.059345781803131104e-01 -7.086979150772094727e-01 -1.994230747222900391e-01 2.820407226681709290e-02 2.321059815585613251e-03
2.362431772053241730e-02 -2.968852519989013672e-01 -2.911621332168579102e-02 -3.238833248615264893e-01 -4.442857112735509872e-03 -2.288267016410827637e-01 1.644413173198699951e-02 -2.424828857183456421e-01 -3.734637200832366943e-01 1.143437400460243225e-01
5.273654684424400330e-02 4.270390141755342484e-03 -1.190496422350406647e-02 3.617182001471519470e-02 -2.110368162393569946e-01 -5.312460660934448242e-02 -9.308427572250366211e-03 -2.712079696357250214e-02 -9.858428500592708588e-03 -3.211974501609802246e-01
-3.739998862147331238e-02 -3.503819108009338379e-01 6.528541445732116699e-02 -1.122966408729553223e-01 -3.578729927539825439e-01 -4.005044326186180115e-02 -9.736280143260955811e-02 -3.254820406436920166e-02 -3.030131943523883820e-02 -1.857892423868179321e-01
-3.118810430169105530e-02 -2.371238321065902710e-01 1.138349529355764389e-02 -2.200531363487243652e-01 -4.202535748481750488e-02 2.353293448686599731e-02 -1.493815779685974121e-01 1.304874122142791748e-01 2.761221118271350861e-02 -2.510396540164947510e-01
-2.972483336925506592e-01 2.886660583317279816e-02 -2.564410269260406494e-01 -2.464181929826736450e-01 4.673168063163757324e-02 3.227834403514862061e-02 2.202322147786617279e-02 -5.263025760650634766e-01 -1.719533354043960571e-01 -1.249085888266563416e-01
-9.709703736007213593e-03 -1.281531751155853271e-01 -2.240318357944488525e-01 -1.696208268404006958e-01 -6.423514336347579956e-02 -1.202929997816681862e-03 -2.192667126655578613e-01 -6.220376491546630859e-02 -4.520745575428009033e-02 -6.917162984609603882e-02
-8.412627875804901123e-02 -2.898419648408889771e-02 -1.598960370756685734e-04 3.926866129040718079e-02 -2.432270050048828125e-01 -4.038243591785430908e-01 -3.089504241943359375e-01 -2.286587283015251160e-02 1.592897437512874603e-02 -8.938048034906387329e-02
2.891545370221138000e-02 -7.631310075521469116e-02 7.525292225182056427e-03 1.073658093810081482e-01 -2.677551507949829102e-01 -2.846433520317077637e-01 -1.866276748478412628e-02 4.172928631305694580e-02 -2.830051481723785400e-01 1.064772251993417740e-02
-4.001325368881225586e-01 9.434398263692855835e-02 -2.485185116529464722e-02 4.735860601067543030e-02 -3.101792335510253906e-01 -2.133957445621490479e-01 -2.037159502506256104e-01 1.326224673539400101e-02 -7.980234175920486450e-02 -3.095985054969787598e-01
-4.232087135314941406e-01 -9.849702008068561554e-03 -3.957358300685882568e-01 -1.417965162545442581e-03 -5.529613420367240906e-02 -2.708348929882049561e-01 -2.948508858680725098e-01 -2.162610292434692383e-01 -5.318823084235191345e-02 -2.685785889625549316e-01
4.817139357328414917e-02 -1.921963393688201904e-01 -7.052285969257354736e-02 -1.472537815570831299e-01 -3.556999862194061279e-01 4.126111418008804321e-02 -6.902208924293518066e-02 5.885090678930282593e-02 6.073572486639022827e-02 -2.458516210317611694e-01
-8.489742130041122437e-02 -2.201235592365264893e-01 3.652874007821083069e-02 -3.277384042739868164e-01 -8.165111392736434937e-02 -8.166588097810745239e-02 4.359519481658935547e-02 -2.897591590881347656e-01 -2.628304958343505859e-01 -7.690704613924026489e-02
-1.431142687797546387e-01 -2.424878776073455811e-01 4.223391041159629822e-02 -1.993171274662017822e-01 5.627365037798881531e-02 7.035112380981445312e-02 -1.946582794189453125e-01 -9.297266602516174316e-02 -5.987892672419548035e-02 -2.031480707228183746e-02
-4.309324026107788086e-01 6.030555069446563721e-02 -1.477620899677276611e-01 -1.194222792983055115e-01 5.612373724579811096e-02 -1.587832868099212646e-01 8.026489987969398499e-03 -3.265838697552680969e-02 -2.726909518241882324e-01 -1.264729630202054977e-02
-1.816170662641525269e-01 -3.880254924297332764e-03 -1.873207837343215942e-01 -2.683265805244445801e-01 -3.816665709018707275e-02 -3.393949568271636963e-02 -1.128923799842596054e-02 -3.263370692729949951e-01 -1.333411224186420441e-02 -2.800716459751129150e-01
-3.495735526084899902e-01 -5.787645652890205383e-02 -3.913299739360809326e-01 -5.250353217124938965e-01 -2.541344761848449707e-01 -1.782997697591781616e-01 9.425584226846694946e-02 -4.456679821014404297e-01 -9.714035689830780029e-02 1.551340073347091675e-01
-7.829384505748748779e-02 -4.395548999309539795e-01 -2.916342616081237793e-01 -7.264059036970138550e-02 -5.537536740303039551e-01 4.305687174201011658e-02 -4.784135520458221436e-01 -3.221236467361450195e-01 -2.835201025009155273e-01 6.423487514257431030e-02
-1.092956960201263428e-01 -1.102926656603813171e-01 -1.716525293886661530e-02 -2.448127567768096924e-01 -3.088482320308685303e-01 -2.199356555938720703e-01 -1.667356118559837341e-02 -4.960273206233978271e-01 -7.740981131792068481e-02 -4.885073304176330566e-01
1.141728609800338745e-01 -5.963037163019180298e-02 -1.036060824990272522e-01 -3.245659768581390381e-01 -5.417918562889099121e-01 -3.610878288745880127e-01 -4.646678268909454346e-02 -3.880477547645568848e-01 -3.599866107106208801e-02 -4.636003673076629639e-01
-1.450793892145156860e-01 -2.554128170013427734e-01 -3.717605769634246826e-01 -3.629028797149658203e-01 -3.810823559761047363e-01 -9.370058029890060425e-02 3.909603133797645569e-02 -4.267199337482452393e-01 7.177536841481924057e-03 -3.460686802864074707e-01
-2.334237843751907349e-01 6.898461282253265381e-02 -3.540472313761711121e-02 9.554377943277359009e-02 1.070096995681524277e-02 -4.056172817945480347e-02 2.145359851419925690e-02 -2.028238028287887573e-01 9.666479378938674927e-02 -2.590064406394958496e-01
-1.630566269159317017e-01 -7.872275076806545258e-03 4.875681176781654358e-02 -2.454725503921508789e-01 -3.086215257644653320e-01 -2.418598979711532593e-01 -2.523519694805145264e-01 3.417304530739784241e-02 -2.106034010648727417e-02 -1.790726333856582642e-01
4.804481193423271179e-02 -5.367529988288879395e-01 -1.624277234077453613e-01 -2.285966873168945312e-01 1.556012779474258423e-01 -3.163397610187530518e-01 -2.892899513244628906e-01 -2.893969044089317322e-02 -2.489724755287170410e-01 -1.708632856607437134e-01
-1.425111442804336548e-01 -1.913768947124481201e-01 -1.105038914829492569e-02 -2.177938371896743774e-01 -7.296046824194490910e-04 -2.425710856914520264e-01 -3.106107413768768311e-01 -5.113425105810165405e-02 -1.064927801489830017e-01 -7.220020052045583725e-03
-4.015629887580871582e-01 -5.105743408203125000e-01 -3.954216539859771729e-01 -1.685187965631484985e-01 -1.893977671861648560e-01 -2.668025791645050049e-01 -2.806031703948974609e-01 -2.094690948724746704e-01 -3.793956041336059570e-01 1.046518459916114807e-01
-2.846831083297729492e-01 -8.411309868097305298e-02 -6.901166588068008423e-02 -2.157588601112365723e-01 3.549755737185478210e-02 -2.027109265327453613e-01 -3.360741958022117615e-02 1.081260200589895248e-02 -1.397585123777389526e-01 -2.669633328914642334e-01
9.085205197334289551e-02 -5.209179129451513290e-03 -2.545497119426727295e-01 1.696951314806938171e-02 -2.392669618129730225e-01 4.916344583034515381e-02 3.289398550987243652e-02 -3.033491969108581543e-01 1.657954999245703220e-03 -3.929040133953094482e-01
-4.443987905979156494e-01 5.576734244823455811e-02 -2.933453619480133057e-01 3.084989963099360466e-03 -6.135629490017890930e-02 4.419045522809028625e-02 -2.902800440788269043e-01 -5.423017963767051697e-02 -2.100190706551074982e-02 -2.416461240500211716e-03
-3.848014175891876221e-01 3.507677093148231506e-02 -3.473317027091979980e-01 -3.922766149044036865e-01 5.663620680570602417e-02 -4.212001562118530273e-01 -1.881201192736625671e-02 8.591851592063903809e-02 1.416131947189569473e-02 -3.931427374482154846e-02
3.130307793617248535e-02 9.346668422222137451e-02 5.200802162289619446e-02 3.269811393693089485e-03 -3.301392793655395508e-01 -6.027781218290328979e-02 -2.326926589012145996e-01 -1.278815865516662598e-01 -1.682645678520202637e-01 -9.725072234869003296e-02
-2.266166806221008301e-01 5.045185983180999756e-02 -9.923812467604875565e-04 -7.491035759449005127e-02 -2.339818328619003296e-01 -3.400572538375854492e-01 -2.230680137872695923e-01 2.235410548746585846e-02 2.032171562314033508e-02 -1.393981873989105225e-01
-2.929878830909729004e-01 -1.705659553408622742e-02 -2.157355099916458130e-01 -2.700743675231933594e-01 2.040900476276874542e-02 -2.981935441493988037e-01 -4.544258415699005127e-01 -4.209462180733680725e-02 -4.405328631401062012e-02 3.643292933702468872e-03
-2.379971183836460114e-02 -3.084011971950531006e-01 -8.962480723857879639e-02 3.768921643495559692e-02 -1.672427803277969360e-01 2.132532186806201935e-02 2.213463885709643364e-03 -3.536879122257232666e-01 1.659758388996124268e-02 -6.996253132820129395e-02
-5.319771170616149902e-01 1.020226478576660156e-01 -1.003135070204734802e-01 -5.459247827529907227e-01 -1.510123610496520996e-01 -2.452268749475479126e-01 -8.043608069419860840e-02 -2.549672722816467285e-01 -2.038306593894958496e-01 -2.767077088356018066e-01
-2.584642171859741211e-01 -3.593015372753143311e-01 -5.595605373382568359e-01 -1.364569216966629028e-01 -2.343801259994506836e-01 2.119572833180427551e-02 4.666096717119216919e-02 -2.194309681653976440e-01 -2.391337007284164429e-01 -4.792085289955139160e-02
-3.135544359683990479e-01 -6.066038459539413452e-02 3.105492144823074341e-02 -1.461702883243560791e-01 -7.742460584267973900e-04 -3.152550756931304932e-01 -1.197689101099967957e-01 1.452282257378101349e-02 -5.154758319258689880e-02 -3.419637680053710938e-02
-1.446351855993270874e-01 -2.787718474864959717e-01 4.487386345863342285e-02 -1.723602861166000366e-01 -3.103522956371307373e-01 -6.573917716741561890e-02 -1.652609109878540039e-01 -8.562821894884109497e-02 1.697063632309436798e-02 -2.565380334854125977e-01
-1.943126469850540161e-01 -3.488611876964569092e-01 -2.435168921947479248e-01 -1.619024872779846191e-01 -2.028245106339454651e-02 5.345817282795906067e-02 3.395442292094230652e-02 -1.368066370487213135e-01 -2.227730117738246918e-02 -7.986737787723541260e-02
3.856653720140457153e-02 -3.682871460914611816e-01 -2.394995987415313721e-01 -3.760654032230377197e-01 2.311865426599979401e-02 -3.750653862953186035e-01 -9.023305959999561310e-03 -4.912415146827697754e-01 -3.339701294898986816e-01 -2.007915638387203217e-02
-3.498144149780273438e-01 -1.491846144199371338e-01 -1.727636437863111496e-03 8.876095712184906006e-02 -2.897267639636993408e-01 -1.585512608289718628e-01 -1.390856206417083740e-01 1.185869276523590088e-01 5.524906329810619354e-03 -1.320270597934722900e-01
-1.144630387425422668e-01 -2.451142668724060059e-01 -3.354435861110687256e-01 -2.959215342998504639e-01 -2.601655125617980957e-01 -2.409677803516387939e-01 -5.786599516868591309e-01 -1.014218665659427643e-02 -9.483283013105392456e-02 2.206358499825000763e-02
9.786895662546157837e-02 -4.445298314094543457e-01 -2.239377647638320923e-01 -2.418540976941585541e-02 1.626799441874027252e-02 -3.645614087581634521e-01 -1.938283294439315796e-01 -1.041862592101097107e-01 -7.958132773637771606e-02 2.031304873526096344e-02
-5.740068480372428894e-02 3.741246089339256287e-02 -2.155230939388275146e-01 -2.964401245117187500e-01 -2.304880023002624512e-01 -3.106675148010253906e-01 -2.975936532020568848e-01 1.023479178547859192e-01 5.715050268918275833e-03 -1.620319038629531860e-01
-2.011122703552246094e-01 -3.098681271076202393e-01 -3.808237984776496887e-02 -1.317698508501052856e-01 -2.495186030864715576e-01 -8.573528379201889038e-03 8.071983605623245239e-02 -5.422403663396835327e-02 9.147562086582183838e-04 -3.378712804988026619e-03
-1.567458659410476685e-01 8.838221430778503418e-02 1.941089145839214325e-02 -2.874444127082824707e-01 -5.004680156707763672e-02 -7.889150828123092651e-02 1.972845382988452911e-02 -2.037691026926040649e-01 -2.951807379722595215e-01 -3.177262544631958008e-01
4.293646290898323059e-02 2.903504483401775360e-02 3.654810786247253418e-02 -4.798654839396476746e-02 -4.825924336910247803e-01 -7.164351642131805420e-02 -1.909914910793304443e-01 -2.342280372977256775e-02 -1.875957995653152466e-01 -1.708868145942687988e-01
-2.797208130359649658e-01 -2.676838934421539307e-01 -2.138474136590957642e-01 -1.870488673448562622e-01 -2.190835475921630859e-01 -2.902081310749053955e-01 -9.996734559535980225e-02 -2.325148135423660278e-01 6.401053816080093384e-02 -1.217733472585678101e-01
-4.239424169063568115e-01 -5.973161384463310242e-02 -2.190539687871932983e-01 -9.609140455722808838e-02 1.911498978734016418e-02 -1.913641579449176788e-02 -2.542333304882049561e-01 -1.825482547283172607e-01 -7.619763910770416260e-02 1.498332712799310684e-02
-2.559657208621501923e-02 -6.885946495458483696e-04 -4.366296902298927307e-02 -2.084137201309204102e-01 -1.103592738509178162e-01 -2.108074277639389038e-01 5.116959288716316223e-02 -3.928224369883537292e-02 -2.237436324357986450e-01 -1.240982487797737122e-01
-3.037655949592590332e-01 -3.006598651409149170e-01 -7.548105902969837189e-03 1.705315522849559784e-02 -1.138242110610008240e-01 -3.299940526485443115e-01 3.273560106754302979e-02 5.815132707357406616e-02 1.164765376597642899e-02 -3.656920045614242554e-02
1.424086163751780987e-03 1.153249144554138184e-01 -2.727382183074951172e-01 -2.251282334327697754e-01 3.608260303735733032e-02 -3.135176897048950195e-01 -5.747187882661819458e-02 3.605622053146362305e-02 -1.749555319547653198e-01 -1.328462082892656326e-02
-8.705501258373260498e-02 3.840339183807373047e-02 -2.417794764041900635e-01 -3.176616430282592773e-01 7.693382352590560913e-02 -4.327730834484100342e-01 -3.515828847885131836e-01 3.657945618033409119e-02 -1.052791923284530640e-01 -2.201202325522899628e-03
2.869269810616970062e-02 -1.097845509648323059e-01 -4.389722347259521484e-01 -1.584580838680267334e-01 -2.866590619087219238e-01 3.326185047626495361e-02 -1.504861470311880112e-02 -8.349902927875518799e-02 5.094850901514291763e-03 5.072605330497026443e-03
-7.639955282211303711e-01 -2.665140293538570404e-02 -2.709031403064727783e-01 3.178191557526588440e-02 1.235689073801040649e-01 -4.068569242954254150e-01 -3.225173056125640869e-01 -5.179622396826744080e-02 -2.287125736474990845e-01 -1.274514496326446533e-01
8.300362154841423035e-03 -2.496785968542098999e-01 -3.358709812164306641e-01 -3.320758938789367676e-01 -1.630911789834499359e-02 -2.007187902927398682e-01 -3.082251250743865967e-01 -2.053910307586193085e-02 -3.504649400711059570e-01 -3.315113857388496399e-02
-1.446499377489089966e-01 -2.014663368463516235e-01 3.742249310016632080e-02 7.263527065515518188e-02 -3.949106037616729736e-01 -2.476981282234191895e-01 -4.212321043014526367e-01 -1.061325310729444027e-03 -5.571777932345867157e-03 -8.616041392087936401e-02
-1.053759008646011353e-01 -3.961603641510009766e-01 -2.581777274608612061e-01 -3.473646342754364014e-01 -1.608831286430358887e-01 -2.794872522354125977e-01 1.642026156187057495e-01 -7.934217154979705811e-02 -3.214038312435150146e-01 -2.120638191699981689e-01
-5.948756821453571320e-03 -3.648701608180999756e-01 3.190766787156462669e-03 3.578311204910278320e-02 -3.292485177516937256e-01 -2.079283259809017181e-02 -4.348073601722717285e-01 -9.380891919136047363e-02 2.318475209176540375e-02 3.697003470733761787e-03
-4.921181499958038330e-02 -6.970995664596557617e-02 2.723097428679466248e-02 -7.310429122298955917e-03 -2.476785331964492798e-01 3.972361236810684204e-02 -1.313784252852201462e-02 -2.782065868377685547e-01 -5.940555781126022339e-02 -1.293151974678039551e-01
-4.122882783412933350e-01 2.080621942877769470e-02 -5.922148376703262329e-02 5.045250803232192993e-02 -2.840554416179656982e-01 1.110659167170524597e-02 -2.987196445465087891e-01 -3.477583825588226318e-02 2.668010070919990540e-02 -8.164618164300918579e-02
-1.160246953368186951e-01 -2.641469836235046387e-01 4.621475934982299805e-02 -3.142644762992858887e-01 2.331919036805629730e-02 -1.805941462516784668e-01 -3.546740710735321045e-01 -4.417346324771642685e-03 -1.346261501312255859e-01 -3.628228604793548584e-02
-1.904431581497192383e-01 -7.454078644514083862e-02 2.104074135422706604e-02 -4.620748758316040039e-02 -2.923908270895481110e-02 -1.883706152439117432e-01 -2.221605554223060608e-02 -1.307233906118199229e-04 -7.083067297935485840e-02 -2.736023962497711182e-01
4.333447664976119995e-02 -1.544160842895507812e-01 2.299235016107559204e-02 -2.095772773027420044e-01 -3.099221363663673401e-02 -1.596327424049377441e-01 -4.177123308181762695e-02 -1.009203717112541199e-01 -1.034172773361206055e-01 -1.377080678939819336e-01
-1.201302036643028259e-01 -1.501796487718820572e-02 -2.209537178277969360e-01 3.720920160412788391e-02 -1.604853896424174309e-03 6.512901186943054199e-02 -3.944368660449981689e-01 -4.180468618869781494e-02 -1.313097625970840454e-01 3.132961690425872803e-02
-4.268717169761657715e-01 -5.050379633903503418e-01 -1.870761960744857788e-01 -1.450221091508865356e-01 -2.073227465152740479e-01 -6.452541798353195190e-02 -3.866264522075653076e-01 -6.435627490282058716e-02 -5.093302950263023376e-02 -5.250935256481170654e-02
7.098819315433502197e-02 3.728434070944786072e-02 -1.765466630458831787e-01 -3.305777609348297119e-01 -1.493519246578216553e-01 -3.331368565559387207e-01 1.881286874413490295e-02 -3.060708343982696533e-01 -1.673602759838104248e-01 -2.213844656944274902e-01
5.068556964397430420e-02 3.143177926540374756e-02 -1.011871453374624252e-02 1.077421903610229492e-01 -3.214988708496093750e-01 -7.748631760478019714e-03 -3.567510545253753662e-01 5.018082261085510254e-02 4.295092448592185974e-02 -1.342121958732604980e-01
-2.360098809003829956e-01 -1.825975626707077026e-02 -1.130744814872741699e-02 -4.346254095435142517e-02 -2.696841061115264893e-01 -2.396849989891052246e-01 8.673463016748428345e-02 -4.713883996009826660e-02 -1.900106221437454224e-01 -3.888054788112640381e-01
-3.531539579853415489e-03 -3.719468414783477783e-01 -2.334490120410919189e-01 -1.055384725332260132e-01 -1.467173732817173004e-02 5.592804402112960815e-02 -3.536397814750671387e-01 4.195344448089599609e-02 -2.284804880619049072e-01 4.843038693070411682e-02
3.025671467185020447e-02 -2.972212135791778564e-01 -7.040881086140871048e-03 -1.856169700622558594e-01 3.474363684654235840e-02 -3.002243638038635254e-01 -2.597427964210510254e-01 -1.685480028390884399e-01 -1.033257544040679932e-01 3.795534744858741760e-02
-3.327022194862365723e-01 -3.800917565822601318e-01 -4.582229554653167725e-01 6.167840212583541870e-02 -1.632550060749053955e-01 9.317874163389205933e-02 -1.829009801149368286e-01 -2.474315762519836426e-01 -4.191200435161590576e-02 3.295342996716499329e-02
-2.755459845066070557e-01 -2.514071762561798096e-02 2.221277728676795959e-02 -8.764758706092834473e-02 -1.795089691877365112e-01 3.598957508802413940e-02 -1.828972063958644867e-02 -4.105497896671295166e-02 -3.316771984100341797e-02 2.863997034728527069e-02
-4.208144545555114746e-01 -3.015531301498413086e-01 -3.714279532432556152e-01 4.313757270574569702e-02 -1.794861746020615101e-03 1.233139410614967346e-01 -3.783391118049621582e-01 -2.221556901931762695e-01 -9.867002069950103760e-02 5.350841674953699112e-03
1.227960512042045593e-01 5.118856579065322876e-02 -1.978509575128555298e-01 -1.651587337255477905e-01 -2.801836431026458740e-01 -3.140351176261901855e-01 4.596142470836639404e-02 -2.155435830354690552e-01 -1.881036609411239624e-01 -3.634955585002899170e-01
-6.236894987523555756e-03 -3.918330371379852295e-01 -9.409493952989578247e-02 -1.368464529514312744e-01 -3.401070833206176758e-01 -6.562320142984390259e-02 3.987706825137138367e-02 -2.242781817913055420e-01 -1.934703998267650604e-02 -2.742099203169345856e-02
-7.449005544185638428e-02 1.359005551785230637e-02 -7.388861477375030518e-02 -2.336793020367622375e-02 -2.841216027736663818e-01 -1.070723403245210648e-02 -2.609891630709171295e-02 -1.800383254885673523e-02 -2.435335665941238403e-01 -1.234287247061729431e-01
3.549890592694282532e-02 -1.538321524858474731e-01 -4.412833601236343384e-03 -2.898486256599426270e-01 -4.057903587818145752e-01 -1.957963109016418457e-01 2.071641758084297180e-02 -7.122942060232162476e-02 -1.007202640175819397e-01 -5.532793402671813965e-01
-1.655779592692852020e-02 -5.405488424003124237e-03 1.038229390978813171e-01 3.056799806654453278e-02 -2.910158038139343262e-01 -1.084654256701469421e-01 -3.729573190212249756e-01 -3.352611884474754333e-02 -4.736974090337753296e-02 2.132027037441730499e-02
-6.408187747001647949e-02 -3.690781891345977783e-01 4.705162718892097473e-02 -1.710043400526046753e-01 7.623311132192611694e-02 -6.141522899270057678e-03 6.333814561367034912e-02 -5.168887972831726074e-02 -2.389655113220214844e-01 5.522578954696655273e-02
-3.650513589382171631e-01 -2.813413441181182861e-01 -3.153040409088134766e-01 -1.731386035680770874e-01 4.300514981150627136e-02 -3.676100373268127441e-01 -3.256665468215942383e-01 -3.565911650657653809e-01 1.889189146459102631e-02 8.617610670626163483e-03
-2.843607068061828613e-01 -1.096266657114028931e-01 -3.167708218097686768e-01 -2.545191943645477295e-01 2.667688392102718353e-02 3.223034366965293884e-02 -3.456593677401542664e-02 -3.488141298294067383e-01 4.440521821379661560e-02 -3.105190992355346680e-01
-2.859210073947906494e-01 -3.007228076457977295e-01 -2.459002882242202759e-01 -1.402714848518371582e-01 -1.943780332803726196e-01 9.586632996797561646e-02 1.178786065429449081e-02 -4.570018053054809570e-01 -1.654719561338424683e-01 -1.642991416156291962e-02
-2.752714790403842926e-02 -2.738628089427947998e-01 2.000004425644874573e-02 -2.728896439075469971e-01 3.606783226132392883e-02 3.801951557397842407e-02 -2.701509296894073486e-01 -1.232631690800189972e-02 -2.473130077123641968e-01 -8.817023597657680511e-03
-3.636064827442169189e-01 -3.221260011196136475e-01 -3.397683501243591309e-01 6.685318797826766968e-02 -2.060949802398681641e-01 -2.294402122497558594e-01 -7.944614291191101074e-01 -2.253995090723037720e-01 7.057778537273406982e-02 5.295613408088684082e-02
-2.578709088265895844e-02 -3.792580962181091309e-01 -2.260011285543441772e-01 -3.535872697830200195e-01 3.097846359014511108e-02 -1.265636086463928223e-01 -6.203284114599227905e-02 3.582897782325744629e-02 -3.178392052650451660e-01 4.205840826034545898e-02
-1.261225715279579163e-02 -9.783820807933807373e-02 -3.091959469020366669e-02 6.698542833328247070e-02 -4.872770296060480177e-05 8.285091817378997803e-02 -1.056315004825592041e-01 2.910477481782436371e-02 -2.764555513858795166e-01 -2.086225599050521851e-01
-4.793110489845275879e-02 -3.221549093723297119e-02 -3.900444135069847107e-03 -1.748883165419101715e-02 3.654953464865684509e-02 -4.041918739676475525e-02 -3.282946646213531494e-01 2.645820379257202148e-03 -3.979769647121429443e-01 3.271616995334625244e-02
-2.411690503358840942e-01 1.306061893701553345e-01 3.547519817948341370e-02 -3.023307397961616516e-02 -1.271861046552658081e-01 -2.293947339057922363e-01 -8.138795942068099976e-02 -2.074099145829677582e-02 -1.533790379762649536e-01 -2.068859487771987915e-01
-4.601646959781646729e-02 -5.933277774602174759e-03 -4.920160770416259766e-02 -1.669801026582717896e-01 -3.285161554813385010e-01 -5.860710889101028442e-02 -2.319471985101699829e-01 1.845000684261322021e-02 -2.130570262670516968e-01 -1.104244813323020935e-01
1.286231330595910549e-03 -2.215729355812072754e-01 -4.415782690048217773e-01 -4.764660894870758057e-01 6.312780082225799561e-02 -2.153128981590270996e-01 -9.246570989489555359e-03 -3.379257321357727051e-01 -6.840328220278024673e-03 -1.923143491148948669e-02
-9.371618926525115967e-02 -5.959774926304817200e-02 -3.181358426809310913e-02 -3.169801235198974609e-01 1.192361488938331604e-02 -2.849399149417877197e-01 -2.006476977840065956e-03 -1.223136261105537415e-01 -5.856988579034805298e-02 -2.745670974254608154e-01
-2.523357272148132324e-01 5.206513404846191406e-02 1.279548928141593933e-02 4.021755419671535492e-03 -1.789715439081192017e-01 -3.389150798320770264e-01 -3.114977777004241943e-01 3.789825364947319031e-02 -2.401476539671421051e-02 -4.197251200675964355e-01
-1.245310250669717789e-02 -2.733526527881622314e-01 -5.166402086615562439e-02 6.007401645183563232e-02 -4.442451894283294678e-01 8.735859766602516174e-03 -8.683110773563385010e-02 -7.743965089321136475e-02 -4.331432655453681946e-02 -2.194944322109222412e-01
-4.814500808715820312e-01 -9.488698095083236694e-02 -2.277822345495223999e-01 -2.382382303476333618e-01 -5.823716986924409866e-03 -3.750003576278686523e-01 -3.973435163497924805e-01 4.397296532988548279e-02 -9.070596843957901001e-02 -1.044847220182418823e-01
